{"learner":{"attributes":{"best_iteration":"33","best_score":"0.18012446001428978"},"feature_names":[],"feature_types":[],"gradient_booster":{"model":{"gbtree_model_param":{"num_parallel_tree":"1","num_trees":"84"},"iteration_indptr":[0,1,2,3,4,5,6,7,8,9,10,11,12,13,14,15,16,17,18,19,20,21,22,23,24,25,26,27,28,29,30,31,32,33,34,35,36,37,38,39,40,41,42,43,44,45,46,47,48,49,50,51,52,53,54,55,56,57,58,59,60,61,62,63,64,65,66,67,68,69,70,71,72,73,74,75,76,77,78,79,80,81,82,83,84],"tree_info":[0,0,0,0,0,0,0,0,0,0,0,0,0,0,0,0,0,0,0,0,0,0,0,0,0,0,0,0,0,0,0,0,0,0,0,0,0,0,0,0,0,0,0,0,0,0,0,0,0,0,0,0,0,0,0,0,0,0,0,0,0,0,0,0,0,0,0,0,0,0,0,0,0,0,0,0,0,0,0,0,0,0,0,0],"trees":[{"base_weights":[2.4763246E-3,-3.6978546E-1,2.0573846E-1,-4.7379434E-2,-3.3289763E-1,8.399479E-3,3.673018E-1,-4.0367758E-1,-2.8425874E-2,-3.450438E-2,3.7768323E-2,4.687741E-2,3.290532E-1,-4.6756368E-2,-3.3101034E-1,-5.9898887E-2,8.37601E-2,-2.9039776E-2,-1.3886723E-1,3.2820303E-2,1.3493112E-1,6.709629E-3,3.9301386E-1,-4.6466026E-2,-5.264718E-2,-2.2320164E-2,-4.0423054E-2,2.9961076E-2,1.7460611E-1,-4.504835E-2,-1.1914313E-2,-8.277509E-2,-2.3771003E-2,7.98686E-2,2.1215742E-2,2.520485E-1,-1.0375706E-1,3.224449E-2,-1.1634898E-2,3.401128E-1,4.752546E-2,-6.686835E-3,9.9171E-3,5.567398E-4,-8.875704E-3,8.705921E-3,-2.4196107E-2,3.0100225E-2,-9.992043E-4,-1.0641415E-2,9.6051267E-4,3.5056367E-3,-1.1385423E-2,-1.2170943E-2,-3.270944E-4,5.1016337E-3,2.3486203E-2,-4.939721E-3,3.538927E-3,6.901964E-3,3.1145608E-2,1.327166E-3,-2.2742162E-2,-6.711252E-3,1.2669882E-3,4.6368625E-2,1.0201597E-2],"categories":[],"categories_nodes":[],"categories_segments":[],"categories_sizes":[],"default_left":[0,0,0,0,0,0,0,0,0,0,0,0,0,0,0,0,0,0,0,0,0,0,0,0,0,0,0,0,0,0,0,0,0,0,0,0,0,0,0,0,0,0,0,0,0,0,0,0,0,0,0,0,0,0,0,0,0,0,0,0,0,0,0,0,0,0,0],"id":0,"left_children":[1,3,5,-1,7,9,11,13,15,17,19,-1,21,-1,23,25,27,29,31,33,35,37,39,-1,41,-1,43,45,47,49,51,53,-1,55,57,59,61,-1,63,65,-1,-1,-1,-1,-1,-1,-1,-1,-1,-1,-1,-1,-1,-1,-1,-1,-1,-1,-1,-1,-1,-1,-1,-1,-1,-1,-1],"loss_changes":[9.2767815E1,1.5035477E0,2.5279934E1,0E0,6.949337E0,4.523963E-1,1.537941E0,1.0615463E0,2.2392863E-1,7.923135E-2,9.797415E-2,0E0,6.594902E0,0E0,4.663144E0,1.468199E-1,6.319258E-2,3.784486E-2,1.9133657E-2,1.0968438E-1,3.0569714E-1,3.165204E-1,9.999771E-1,0E0,9.731073E-2,0E0,1.0052472E-1,1.763274E-1,1.1967008E-1,2.4249965E-1,3.3437628E-1,1.8174544E-2,0E0,1.6689461E-1,1.6688585E-1,5.461657E-2,6.090748E-2,0E0,7.0965625E-2,4.8368206E0,0E0,0E0,0E0,0E0,0E0,0E0,0E0,0E0,0E0,0E0,0E0,0E0,0E0,0E0,0E0,0E0,0E0,0E0,0E0,0E0,0E0,0E0,0E0,0E0,0E0,0E0,0E0],"parents":[2147483647,0,0,1,1,2,2,4,4,5,5,6,6,7,7,8,8,9,9,10,10,12,12,14,14,15,15,16,16,17,17,18,18,19,19,20,20,21,21,22,22,24,24,26,26,27,27,28,28,29,29,30,30,31,31,33,33,34,34,35,35,36,36,38,38,39,39],"right_children":[2,4,6,-1,8,10,12,14,16,18,20,-1,22,-1,24,26,28,30,32,34,36,38,40,-1,42,-1,44,46,48,50,52,54,-1,56,58,60,62,-1,64,66,-1,-1,-1,-1,-1,-1,-1,-1,-1,-1,-1,-1,-1,-1,-1,-1,-1,-1,-1,-1,-1,-1,-1,-1,-1,-1,-1],"split_conditions":[3.4031814E-1,1.1870937E-1,6.634485E-1,-4.7379434E-2,1E0,4.6749163E-1,3.530156E-1,2.6322386E-1,2.706111E-1,4.6171737E-1,6.558907E-1,4.687741E-2,7.3763704E-1,-4.6756368E-2,3.530156E-1,1.3061191E-1,3.2100257E-1,3.530156E-1,1E0,5.034611E-1,3.530156E-1,6.6719043E-1,9.011553E-1,-4.6466026E-2,3.295866E-1,-2.2320164E-2,1.9712059E-1,3.139935E-1,3.295866E-1,3.9633632E-1,4.2295423E-1,3.530156E-1,-2.3771003E-2,5.0016665E-1,5.288639E-1,6.5968186E-1,1E0,3.224449E-2,6.886405E-1,1E0,4.752546E-2,-6.686835E-3,9.9171E-3,5.567398E-4,-8.875704E-3,8.705921E-3,-2.4196107E-2,3.0100225E-2,-9.992043E-4,-1.0641415E-2,9.6051267E-4,3.5056367E-3,-1.1385423E-2,-1.2170943E-2,-3.270944E-4,5.1016337E-3,2.3486203E-2,-4.939721E-3,3.538927E-3,6.901964E-3,3.1145608E-2,1.327166E-3,-2.2742162E-2,-6.711252E-3,1.2669882E-3,4.6368625E-2,1.0201597E-2],"split_indices":[0,0,0,0,2,0,2,0,0,0,0,0,0,0,2,0,0,2,2,0,2,0,0,0,0,0,0,0,0,0,0,2,0,0,0,0,2,0,0,2,0,0,0,0,0,0,0,0,0,0,0,0,0,0,0,0,0,0,0,0,0,0,0,0,0,0,0],"split_type":[0,0,0,0,0,0,0,0,0,0,0,0,0,0,0,0,0,0,0,0,0,0,0,0,0,0,0,0,0,0,0,0,0,0,0,0,0,0,0,0,0,0,0,0,0,0,0,0,0,0,0,0,0,0,0,0,0,0,0,0,0,0,0,0,0,0,0],"sum_hessian":[1.224E3,4.32E2,7.92E2,1.1E2,3.22E2,3.57E2,4.35E2,2.61E2,6.1E1,1.45E2,2.12E2,1.16E2,3.19E2,1.36E2,1.25E2,4.8E1,1.3E1,1.39E2,6E0,2.03E2,9E0,5.3E1,2.66E2,8.4E1,4.1E1,4E0,4.4E1,9E0,4E0,7.1E1,6.8E1,5E0,1E0,3.9E1,1.64E2,6E0,3E0,2E0,5.1E1,1.65E2,1.01E2,3.8E1,3E0,2.3E1,2.1E1,8E0,1E0,2E0,2E0,3.3E1,3.8E1,4.7E1,2.1E1,3E0,2E0,3.4E1,5E0,2.7E1,1.37E2,2E0,4E0,2E0,1E0,1.5E1,3.6E1,1.08E2,5.7E1],"tree_param":{"num_deleted":"0","num_feature":"3","num_nodes":"67","size_leaf_vector":"1"}},{"base_weights":[-7.8064194E-3,-1.9554587E-1,3.3566973E-1,-3.3990544E-1,-1.4119648E-2,3.0017897E-1,4.285399E-2,-4.24312E-2,-3.0906254E-1,-8.730916E-2,-9.6706866E-4,3.6448917E-1,2.8528785E-2,-3.5863295E-1,-4.3827694E-2,-1.08387426E-1,4.480452E-2,1.2441237E-1,-5.332321E-3,2.9529646E-1,4.1481357E-2,9.114913E-3,1.7699083E-2,-4.2285077E-2,-3.0962232E-1,-5.3152386E-2,2.1586582E-2,-1.2143749E-1,-1.8331716E-3,1.7480645E-1,-1.2889902E-1,-1.5939994E-3,3.3892594E-2,-1.0059605E-2,4.0562257E-2,4.1194882E-2,1.0624327E-2,-2.1605054E-2,1.7285578E-2,-4.2443108E-2,-5.3146733E-3,1.4848431E-2,-6.015481E-3,-9.742397E-3,-1.4057981E-2,-9.325902E-4,3.0067E-2,-2.4252845E-2,-1.0179739E-3,2.8568981E-3,-1.759828E-3,3.1919524E-2,5.503812E-4,1.9683754E-2,-2.184776E-3,2.2445148E-2,9.141855E-4],"categories":[],"categories_nodes":[],"categories_segments":[],"categories_sizes":[],"default_left":[0,0,0,0,0,0,0,0,0,0,0,0,0,0,0,0,0,0,0,0,0,0,0,0,0,0,0,0,0,0,0,0,0,0,0,0,0,0,0,0,0,0,0,0,0,0,0,0,0,0,0,0,0,0,0,0,0],"id":1,"left_children":[1,3,5,7,9,11,-1,-1,13,15,17,19,21,23,25,27,29,31,33,35,-1,37,-1,-1,39,41,-1,43,-1,45,47,-1,-1,49,51,-1,53,-1,55,-1,-1,-1,-1,-1,-1,-1,-1,-1,-1,-1,-1,-1,-1,-1,-1,-1,-1],"loss_changes":[7.80913E1,2.0502449E1,1.2820625E0,1.0039177E0,3.3491114E-1,5.457676E0,0E0,0E0,4.231018E0,1.524468E-1,1.6266803E-1,7.5847244E-1,1.7420234E-1,7.251587E-1,1.3739502E-1,5.1834524E-2,2.0318675E-1,3.064773E-1,6.267463E-2,3.648467E0,0E0,1.0492091E-1,0E0,0E0,4.629854E0,8.094123E-2,0E0,4.6911836E-3,0E0,1.1868177E-1,5.1491134E-2,0E0,0E0,7.6508135E-2,2.6199108E-1,0E0,2.038426E-1,0E0,8.9051604E-2,0E0,0E0,0E0,0E0,0E0,0E0,0E0,0E0,0E0,0E0,0E0,0E0,0E0,0E0,0E0,0E0,0E0,0E0],"parents":[2147483647,0,0,1,1,2,2,3,3,4,4,5,5,8,8,9,9,10,10,11,11,12,12,13,13,14,14,15,15,16,16,17,17,18,18,19,19,21,21,24,24,25,25,27,27,29,29,30,30,33,33,34,34,36,36,38,38],"right_children":[2,4,6,8,10,12,-1,-1,14,16,18,20,22,24,26,28,30,32,34,36,-1,38,-1,-1,40,42,-1,44,-1,46,48,-1,-1,50,52,-1,54,-1,56,-1,-1,-1,-1,-1,-1,-1,-1,-1,-1,-1,-1,-1,-1,-1,-1,-1,-1],"split_conditions":[6.5968186E-1,3.3655152E-1,8.842018E-1,3.530156E-1,3.7903056E-1,1E0,4.285399E-2,-4.24312E-2,2.5979048E-1,1E0,3.8790655E-1,7.3244584E-1,8.7240314E-1,1.1870937E-1,3.295866E-1,3.744989E-1,3.5562822E-1,3.530156E-1,6.384015E-1,3.530156E-1,4.1481357E-2,6.634485E-1,1.7699083E-2,-4.2285077E-2,1E0,2.6086047E-1,2.1586582E-2,3.5562822E-1,-1.8331716E-3,3.4031814E-1,3.618593E-1,-1.5939994E-3,3.3892594E-2,4.3226236E-1,6.407443E-1,4.1194882E-2,6.7090756E-1,-2.1605054E-2,6.6719043E-1,-4.2443108E-2,-5.3146733E-3,1.4848431E-2,-6.015481E-3,-9.742397E-3,-1.4057981E-2,-9.325902E-4,3.0067E-2,-2.4252845E-2,-1.0179739E-3,2.8568981E-3,-1.759828E-3,3.1919524E-2,5.503812E-4,1.9683754E-2,-2.184776E-3,2.2445148E-2,9.141855E-4],"split_indices":[0,0,0,2,0,2,0,0,0,2,0,0,0,0,0,0,0,2,0,2,0,0,0,0,2,0,0,0,0,0,0,0,0,0,0,0,0,0,0,0,0,0,0,0,0,0,0,0,0,0,0,0,0,0,0,0,0],"split_type":[0,0,0,0,0,0,0,0,0,0,0,0,0,0,0,0,0,0,0,0,0,0,0,0,0,0,0,0,0,0,0,0,0,0,0,0,0,0,0,0,0,0,0,0,0,0,0,0,0,0,0,0,0,0,0,0,0],"sum_hessian":[1.209E3,7.82E2,4.27E2,4.35E2,3.47E2,3.12E2,1.15E2,1.13E2,3.22E2,5.2E1,2.95E2,2.52E2,6E1,2.71E2,5.1E1,4.5E1,7E0,9E0,2.86E2,1.09E2,1.43E2,5.4E1,6E0,1.14E2,1.57E2,5E1,1E0,3.9E1,6E0,4E0,3E0,6E0,3E0,2.6E2,2.6E1,7.7E1,3.2E1,1E0,5.3E1,1.08E2,4.9E1,1E0,4.9E1,2E1,1.9E1,2E0,2E0,1E0,2E0,4.2E1,2.18E2,2E0,2.4E1,4E0,2.8E1,1E0,5.2E1],"tree_param":{"num_deleted":"0","num_feature":"3","num_nodes":"57","size_leaf_vector":"1"}},{"base_weights":[-3.4765024E-3,-1.5620066E-1,3.3285084E-1,-3.6053E-1,-2.413075E-2,1.4978237E-1,3.6111763E-1,-4.2992942E-2,-2.7970237E-1,-1.7432849E-1,-4.588022E-3,3.796194E-2,2.7300993E-3,4.3045755E-2,2.763238E-1,-4.0207976E-1,-1.1756859E-2,-3.8635295E-3,-3.518981E-2,-1.6120777E-2,7.2786002E-3,3.404286E-2,3.9470103E-1,-4.5853112E-2,-2.3832696E-2,-3.3442178E-3,1.8749385E-3,-3.8659535E-2,1.3410744E-2,3.4858484E-3,4.955983E-3,1.7055934E-3,4.6780594E-3,2.4318004E-2,4.5316484E-2,-2.428312E-3,-1.0386027E-2,8.143073E-3,-1.0669394E-3,6.5488263E-4,-7.329581E-4],"categories":[],"categories_nodes":[],"categories_segments":[],"categories_sizes":[],"default_left":[0,0,0,0,0,0,0,0,0,0,0,0,0,0,0,0,0,0,0,0,0,0,0,0,0,0,0,0,0,0,0,0,0,0,0,0,0,0,0,0,0],"id":2,"left_children":[1,3,5,7,9,11,13,-1,15,17,19,-1,-1,-1,21,23,25,-1,-1,27,29,31,33,-1,-1,-1,-1,35,37,-1,39,-1,-1,-1,-1,-1,-1,-1,-1,-1,-1],"loss_changes":[6.1844463E1,2.2335506E1,1.8916168E0,1.7028008E0,1.4785782E0,1.4534751E0,1.7919273E0,0E0,5.0122156E0,1.3839134E0,6.1291456E-2,0E0,0E0,0E0,4.259966E0,8.613453E-1,3.3042368E-2,0E0,0E0,1.5161051E-1,1.3983955E-2,1.002086E-2,7.7564716E-1,0E0,0E0,0E0,0E0,1.1839649E-1,1.6302395E-1,0E0,4.0596407E-3,0E0,0E0,0E0,0E0,0E0,0E0,0E0,0E0,0E0,0E0],"parents":[2147483647,0,0,1,1,2,2,3,3,4,4,5,5,6,6,8,8,9,9,10,10,14,14,15,15,16,16,19,19,20,20,21,21,22,22,27,27,28,28,30,30],"right_children":[2,4,6,8,10,12,14,-1,16,18,20,-1,-1,-1,22,24,26,-1,-1,28,30,32,34,-1,-1,-1,-1,36,38,-1,40,-1,-1,-1,-1,-1,-1,-1,-1,-1,-1],"split_conditions":[6.445462E-1,3.457454E-1,6.6060686E-1,1E0,3.5714024E-1,6.542546E-1,1E0,-4.2992942E-2,2.1428187E-1,3.4742346E-1,3.530156E-1,3.796194E-2,2.7300993E-3,4.3045755E-2,8.571463E-1,1.4285365E-1,2.423957E-1,-3.8635295E-3,-3.518981E-2,5.321214E-1,3.6348408E-1,7.1595603E-1,9.071456E-1,-4.5853112E-2,-2.3832696E-2,-3.3442178E-3,1.8749385E-3,5E-1,5.6424284E-1,3.4858484E-3,5.8030355E-1,1.7055934E-3,4.6780594E-3,2.4318004E-2,4.5316484E-2,-2.428312E-3,-1.0386027E-2,8.143073E-3,-1.0669394E-3,6.5488263E-4,-7.329581E-4],"split_indices":[1,1,1,2,1,1,2,0,1,1,2,0,0,0,1,1,1,0,0,1,1,1,1,0,0,0,0,1,1,0,1,0,0,0,0,0,0,0,0,0,0],"split_type":[0,0,0,0,0,0,0,0,0,0,0,0,0,0,0,0,0,0,0,0,0,0,0,0,0,0,0,0,0,0,0,0,0,0,0,0,0,0,0,0,0],"sum_hessian":[1.202E3,8.27E2,3.75E2,3.24E2,5.03E2,5.1E1,3.24E2,1.72E2,1.52E2,5.7E1,4.46E2,1.7E1,3.4E1,1.76E2,1.48E2,1.04E2,4.8E1,3.3E1,2.4E1,2.26E2,2.2E2,4.9E1,9.9E1,7.6E1,2.8E1,2.8E1,2E1,1.28E2,9.8E1,1.6E1,2.04E2,2.2E1,2.7E1,2.9E1,7E1,1.06E2,2.2E1,2.5E1,7.3E1,1.81E2,2.3E1],"tree_param":{"num_deleted":"0","num_feature":"3","num_nodes":"41","size_leaf_vector":"1"}},{"base_weights":[3.1806729E-3,-1.8137717E-1,2.897546E-1,-3.0527294E-1,-1.0250466E-2,2.0066072E-1,3.2813594E-1,-3.3457312E-1,-2.1881959E-1,-3.871511E-2,1.4423373E-2,3.351671E-1,3.3046037E-2,3.6873404E-2,2.8117347E-1,-3.7667092E-2,-2.835092E-1,-3.7102472E-2,-3.9511412E-2,-2.6724332E-3,-5.0380547E-2,2.575465E-2,-3.9314404E-2,1.746679E-1,3.684928E-2,-9.62541E-2,4.0610954E-2,2.9498449E-2,3.763821E-1,-3.777806E-1,-5.5116545E-3,-2.3864022E-2,-2.923466E-2,-2.584726E-2,2.6859138E-2,-1.9366126E-1,-2.770435E-2,3.2197215E-2,-5.331176E-2,2.1013275E-2,-5.5161987E-2,3.23817E-2,1.15339875E-1,9.589951E-4,-2.0689314E-2,4.745226E-2,-7.387174E-2,-1.0696004E-1,5.323463E-2,1.6993506E-2,3.8223796E-2,-3.8854327E-2,-2.746886E-2,2.7410937E-3,-7.346537E-3,4.1365437E-4,-5.315007E-3,-4.9399375E-3,2.341091E-3,-2.5001345E-2,-1.2831387E-2,1.5222624E-2,-3.7080143E-3,1.5982188E-3,1.3310364E-2,-7.1798447E-3,1.991888E-3,-2.1536417E-2,-4.17489E-3,2.8598725E-3,1.2851112E-2,3.380214E-3,7.37449E-3,3.5756738E-3,-2.013786E-2,1.2080143E-3,-1.5699213E-2,2.8694406E-2,3.284644E-3],"categories":[],"categories_nodes":[],"categories_segments":[],"categories_sizes":[],"default_left":[0,0,0,0,0,0,0,0,0,0,0,0,0,0,0,0,0,0,0,0,0,0,0,0,0,0,0,0,0,0,0,0,0,0,0,0,0,0,0,0,0,0,0,0,0,0,0,0,0,0,0,0,0,0,0,0,0,0,0,0,0,0,0,0,0,0,0,0,0,0,0,0,0,0,0,0,0,0,0],"id":3,"left_children":[1,3,5,7,9,11,13,15,17,19,21,23,25,-1,27,-1,29,-1,31,33,35,37,39,41,-1,43,45,47,49,51,53,55,-1,57,-1,59,61,63,65,-1,67,-1,69,-1,-1,71,73,75,77,-1,-1,-1,-1,-1,-1,-1,-1,-1,-1,-1,-1,-1,-1,-1,-1,-1,-1,-1,-1,-1,-1,-1,-1,-1,-1,-1,-1,-1,-1],"loss_changes":[6.521237E1,1.5898275E1,1.5857925E0,1.0286865E0,2.2249532E-1,3.3256211E0,5.369339E-1,5.8756256E-1,3.069293E0,6.1672077E-2,1.0452852E-1,3.7423325E-1,6.944464E-2,0E0,3.8227596E0,0E0,3.928999E0,0E0,2.0270261E-1,2.3954254E-1,3.552806E-1,7.354055E-2,1.3018538E-1,1.0423049E-1,0E0,4.8826028E-2,5.363091E-2,1.5144911E-1,7.528114E-2,1.7539978E-2,8.926504E-2,4.2041183E-2,0E0,4.176118E-2,0E0,2.3156762E-2,1.6928276E-1,2.1221495E-1,1.6321853E-2,0E0,5.3324133E-2,0E0,1.1177078E-2,0E0,0E0,1.9400015E-2,6.3114166E-2,4.3587305E-2,1.7640647E-1,0E0,0E0,0E0,0E0,0E0,0E0,0E0,0E0,0E0,0E0,0E0,0E0,0E0,0E0,0E0,0E0,0E0,0E0,0E0,0E0,0E0,0E0,0E0,0E0,0E0,0E0,0E0,0E0,0E0,0E0],"parents":[2147483647,0,0,1,1,2,2,3,3,4,4,5,5,6,6,7,7,8,8,9,9,10,10,11,11,12,12,14,14,16,16,18,18,19,19,20,20,21,21,22,22,23,23,25,25,26,26,27,27,28,28,29,29,30,30,31,31,33,33,35,35,36,36,37,37,38,38,40,40,42,42,45,45,46,46,47,47,48,48],"right_children":[2,4,6,8,10,12,14,16,18,20,22,24,26,-1,28,-1,30,-1,32,34,36,38,40,42,-1,44,46,48,50,52,54,56,-1,58,-1,60,62,64,66,-1,68,-1,70,-1,-1,72,74,76,78,-1,-1,-1,-1,-1,-1,-1,-1,-1,-1,-1,-1,-1,-1,-1,-1,-1,-1,-1,-1,-1,-1,-1,-1,-1,-1,-1,-1,-1,-1],"split_conditions":[6.331655E-1,3.4487048E-1,7.2387713E-1,2.7634475E-1,4.7719103E-1,3.530156E-1,1E0,1E0,3.530156E-1,3.744989E-1,1E0,6.5968186E-1,6.384015E-1,3.6873404E-2,8.7240314E-1,-3.7667092E-2,1.4294533E-1,-3.7102472E-2,3.4031814E-1,3.7025985E-1,3.8790655E-1,6.212368E-1,4.809624E-1,6.407443E-1,3.684928E-2,1E0,7.227666E-1,7.507639E-1,8.842018E-1,1.0862903E-1,2.2163232E-1,3.0826405E-1,-2.923466E-2,3.618593E-1,2.6859138E-2,3.530156E-1,3.908878E-1,6.036637E-1,6.300042E-1,2.1013275E-2,4.9057785E-1,3.23817E-2,6.456623E-1,9.589951E-4,-2.0689314E-2,1E0,1E0,7.313565E-1,7.6044744E-1,1.6993506E-2,3.8223796E-2,-3.8854327E-2,-2.746886E-2,2.7410937E-3,-7.346537E-3,4.1365437E-4,-5.315007E-3,-4.9399375E-3,2.341091E-3,-2.5001345E-2,-1.2831387E-2,1.5222624E-2,-3.7080143E-3,1.5982188E-3,1.3310364E-2,-7.1798447E-3,1.991888E-3,-2.1536417E-2,-4.17489E-3,2.8598725E-3,1.2851112E-2,3.380214E-3,7.37449E-3,3.5756738E-3,-2.013786E-2,1.2080143E-3,-1.5699213E-2,2.8694406E-2,3.284644E-3],"split_indices":[0,0,0,0,0,2,2,2,2,0,2,0,0,0,0,0,0,0,0,0,0,0,0,0,0,2,0,0,0,0,0,0,0,0,0,2,0,0,0,0,0,0,0,0,0,2,2,0,0,0,0,0,0,0,0,0,0,0,0,0,0,0,0,0,0,0,0,0,0,0,0,0,0,0,0,0,0,0,0],"split_type":[0,0,0,0,0,0,0,0,0,0,0,0,0,0,0,0,0,0,0,0,0,0,0,0,0,0,0,0,0,0,0,0,0,0,0,0,0,0,0,0,0,0,0,0,0,0,0,0,0,0,0,0,0,0,0,0,0,0,0,0,0,0,0,0,0,0,0,0,0,0,0,0,0,0,0,0,0,0,0],"sum_hessian":[1.231E3,7.49E2,4.82E2,4.34E2,3.15E2,1.47E2,3.35E2,3.22E2,1.12E2,1.46E2,1.69E2,8.1E1,6.6E1,1.76E2,1.59E2,1.73E2,1.49E2,6E1,5.2E1,3.6E1,1.1E2,1.4E2,2.9E1,1.5E1,6.6E1,3E0,6.3E1,4.4E1,1.15E2,1.11E2,3.8E1,5E1,2E0,3.4E1,2E0,1.4E1,9.6E1,1.3E2,1E1,1E0,2.8E1,3E0,1.2E1,2E0,1E0,6E1,3E0,6E0,3.8E1,4E0,1.11E2,9.8E1,1.3E1,2.6E1,1.2E1,2.6E1,2.4E1,2.3E1,1.1E1,6E0,8E0,4E0,9.2E1,1.13E2,1.7E1,8E0,2E0,1E0,2.7E1,2E0,1E1,4.1E1,1.9E1,2E0,1E0,2E0,4E0,2E0,3.6E1],"tree_param":{"num_deleted":"0","num_feature":"3","num_nodes":"79","size_leaf_vector":"1"}},{"base_weights":[-3.469839E-3,-1.5619242E-1,2.761162E-1,-2.753588E-1,-1.3420946E-2,2.5073162E-1,3.4533363E-2,-3.465318E-2,-2.4920185E-1,-6.7411564E-2,-7.0275576E-3,3.002107E-1,3.2143295E-2,-3.0297124E-1,-2.2299616E-2,-4.9172662E-2,-1.7795378E-1,7.944495E-2,-1.582738E-2,2.1853225E-1,3.414438E-2,-3.7024293E-2,8.2606554E-2,-3.4096163E-2,-2.4091719E-1,-6.441267E-3,-9.523911E-2,-8.2191646E-2,-1.8691719E-3,-4.981955E-4,-2.9160768E-2,5.1636607E-3,2.072796E-1,-4.2847116E-2,1.5231573E-3,3.155331E-1,2.373921E-2,8.421393E-2,-1.1806155E-1,1.7096816E-2,4.042319E-2,-3.3485483E-2,3.85399E-4,-3.963946E-3,7.0732133E-3,-1.7076183E-2,7.96161E-3,-1.093498E-2,-1.6133686E-3,-4.3014656E-3,6.701817E-3,-1.9335591E-3,6.5551177E-3,3.1530913E-2,1.2735488E-2,-2.539585E-3,-8.931519E-3,1.5147447E-3,-6.9939434E-3,5.4559927E-3,3.235915E-2,2.1875907E-2,9.94658E-4,-6.3609043E-3,2.1800125E-2,-1.3705047E-2,9.907197E-4,5.7483236E-3,9.084794E-4],"categories":[],"categories_nodes":[],"categories_segments":[],"categories_sizes":[],"default_left":[0,0,0,0,0,0,0,0,0,0,0,0,0,0,0,0,0,0,0,0,0,0,0,0,0,0,0,0,0,0,0,0,0,0,0,0,0,0,0,0,0,0,0,0,0,0,0,0,0,0,0,0,0,0,0,0,0,0,0,0,0,0,0,0,0,0,0,0,0],"id":4,"left_children":[1,3,5,7,9,11,-1,-1,13,15,17,19,21,23,25,27,29,31,33,35,-1,37,39,-1,41,43,45,47,49,-1,-1,51,53,55,57,59,61,63,65,-1,67,-1,-1,-1,-1,-1,-1,-1,-1,-1,-1,-1,-1,-1,-1,-1,-1,-1,-1,-1,-1,-1,-1,-1,-1,-1,-1,-1,-1],"loss_changes":[5.2093334E1,1.3420002E1,6.707039E-1,7.141571E-1,1.2379213E-1,3.4405117E0,0E0,0E0,3.8729706E0,6.7863956E-2,2.4704193E-1,8.010254E-1,2.1248376E-1,5.237217E-1,7.110195E-2,5.2951418E-2,9.684181E-2,2.8380135E-1,1.3789448E-1,1.693068E0,0E0,2.6538756E-1,1.2354754E-1,0E0,2.323607E0,1.3602868E-1,1.5885636E-1,3.411603E-2,4.539881E-2,0E0,0E0,3.085645E-2,5.482033E-2,9.098834E-2,1.7631225E-1,1.0852575E-1,8.1209034E-2,2.3141208E-1,4.023756E-2,0E0,1.2843635E-2,0E0,0E0,0E0,0E0,0E0,0E0,0E0,0E0,0E0,0E0,0E0,0E0,0E0,0E0,0E0,0E0,0E0,0E0,0E0,0E0,0E0,0E0,0E0,0E0,0E0,0E0,0E0,0E0],"parents":[2147483647,0,0,1,1,2,2,3,3,4,4,5,5,8,8,9,9,10,10,11,11,12,12,13,13,14,14,15,15,16,16,17,17,18,18,19,19,21,21,22,22,24,24,25,25,26,26,27,27,28,28,31,31,32,32,33,33,34,34,35,35,36,36,37,37,38,38,40,40],"right_children":[2,4,6,8,10,12,-1,-1,14,16,18,20,22,24,26,28,30,32,34,36,-1,38,40,-1,42,44,46,48,50,-1,-1,52,54,56,58,60,62,64,66,-1,68,-1,-1,-1,-1,-1,-1,-1,-1,-1,-1,-1,-1,-1,-1,-1,-1,-1,-1,-1,-1,-1,-1,-1,-1,-1,-1,-1,-1],"split_conditions":[6.558907E-1,3.3655152E-1,8.842018E-1,1.1870937E-1,3.618593E-1,1E0,3.4533363E-2,-3.465318E-2,1E0,1E0,3.908878E-1,7.162713E-1,7.879819E-1,2.706111E-1,2.8485796E-1,3.530156E-1,3.4031814E-1,3.7903056E-1,4.968879E-1,3.530156E-1,3.414438E-2,7.1105385E-1,8.207018E-1,-3.4096163E-2,3.530156E-1,2.3148859E-1,3.2100257E-1,3.5562822E-1,3.520214E-1,-4.981955E-4,-2.9160768E-2,3.744989E-1,3.530156E-1,4.6749163E-1,6.331655E-1,6.5968186E-1,6.5968186E-1,6.7948383E-1,7.783677E-1,1.7096816E-2,8.601798E-1,-3.3485483E-2,3.85399E-4,-3.963946E-3,7.0732133E-3,-1.7076183E-2,7.96161E-3,-1.093498E-2,-1.6133686E-3,-4.3014656E-3,6.701817E-3,-1.9335591E-3,6.5551177E-3,3.1530913E-2,1.2735488E-2,-2.539585E-3,-8.931519E-3,1.5147447E-3,-6.9939434E-3,5.4559927E-3,3.235915E-2,2.1875907E-2,9.94658E-4,-6.3609043E-3,2.1800125E-2,-1.3705047E-2,9.907197E-4,5.7483236E-3,9.084794E-4],"split_indices":[0,0,0,0,0,2,0,0,2,2,0,0,0,0,0,2,0,0,0,2,0,0,0,0,2,0,0,0,0,0,0,0,2,0,0,0,0,0,0,0,0,0,0,0,0,0,0,0,0,0,0,0,0,0,0,0,0,0,0,0,0,0,0,0,0,0,0,0,0],"split_type":[0,0,0,0,0,0,0,0,0,0,0,0,0,0,0,0,0,0,0,0,0,0,0,0,0,0,0,0,0,0,0,0,0,0,0,0,0,0,0,0,0,0,0,0,0,0,0,0,0,0,0,0,0,0,0,0,0,0,0,0,0,0,0,0,0,0,0,0,0],"sum_hessian":[1.218E3,7.88E2,4.3E2,4.29E2,3.59E2,3.18E2,1.12E2,1.12E2,3.17E2,3.7E1,3.22E2,2.59E2,5.9E1,2.56E2,6.1E1,3.3E1,4E0,2.9E1,2.93E2,8.9E1,1.7E2,2.5E1,3.4E1,1.56E2,1E2,5.1E1,1E1,1.9E1,1.4E1,2E0,2E0,1.9E1,1E1,1.14E2,1.79E2,5.9E1,3E1,1E1,1.5E1,1E1,2.4E1,7.2E1,2.8E1,3.6E1,1.5E1,7E0,3E0,1.3E1,6E0,9E0,5E0,1.4E1,5E0,3E0,7E0,8.4E1,3E1,1.51E2,2.8E1,2E0,5.7E1,1E0,2.9E1,5E0,5E0,1.3E1,2E0,1.5E1,9E0],"tree_param":{"num_deleted":"0","num_feature":"3","num_nodes":"69","size_leaf_vector":"1"}},{"base_weights":[-3.0284465E-4,-3.043283E-1,1.4155228E-1,-3.2916826E-1,-1.4343221E-1,2.3144318E-2,3.218983E-1,-3.8543846E-2,-2.5555432E-1,-6.4640054E-3,-3.0180278E-1,6.8989997E-3,1.5384085E-1,3.960534E-2,2.3491116E-1,-4.0577352E-2,-9.591895E-2,-3.5273463E-2,-2.116782E-2,-1.6718691E-2,1.6353821E-2,3.4428135E-2,4.159514E-3,2.8908476E-5,3.5000604E-1,-1.6399698E-2,-5.1872537E-2,-3.4210436E-2,2.4008234E-3,8.457316E-2,6.8878643E-3,2.0258829E-2,4.0553164E-2,-7.0843883E-3,-2.0186137E-3,-7.7259834E-3,-1.7501632E-3,1.3369585E-3,-3.663042E-4,5.778683E-3,2.6052013E-2,-4.2991713E-4,3.844477E-3],"categories":[],"categories_nodes":[],"categories_segments":[],"categories_sizes":[],"default_left":[0,0,0,0,0,0,0,0,0,0,0,0,0,0,0,0,0,0,0,0,0,0,0,0,0,0,0,0,0,0,0,0,0,0,0,0,0,0,0,0,0,0,0],"id":5,"left_children":[1,3,5,7,9,11,13,-1,15,-1,17,19,21,-1,23,-1,25,-1,-1,27,29,-1,-1,-1,31,-1,33,35,37,39,41,-1,-1,-1,-1,-1,-1,-1,-1,-1,-1,-1,-1],"loss_changes":[5.3952538E1,1.5434532E0,1.820786E1,1.3264427E0,6.668012E-1,1.0945134E0,2.0872421E0,0E0,3.6060839E0,0E0,7.957578E-3,1.02991894E-1,1.204119E0,0E0,4.2664986E0,0E0,2.1638763E-1,0E0,0E0,4.4227384E-2,2.1187295E-1,0E0,0E0,0E0,7.8550434E-1,0E0,2.6823208E-2,4.82798E-2,4.3058107E-3,1.7346433E-1,1.0254347E-1,0E0,0E0,0E0,0E0,0E0,0E0,0E0,0E0,0E0,0E0,0E0,0E0],"parents":[2147483647,0,0,1,1,2,2,3,3,4,4,5,5,6,6,8,8,10,10,11,11,12,12,14,14,16,16,19,19,20,20,24,24,26,26,27,27,28,28,29,29,30,30],"right_children":[2,4,6,8,10,12,14,-1,16,-1,18,20,22,-1,24,-1,26,-1,-1,28,30,-1,-1,-1,32,-1,34,36,38,40,42,-1,-1,-1,-1,-1,-1,-1,-1,-1,-1,-1,-1],"split_conditions":[3.5714024E-1,3.457454E-1,6.6060686E-1,1E0,3.4742346E-1,6.445462E-1,1E0,-3.8543846E-2,8.5711695E-2,-6.4640054E-3,3.554538E-1,4.2857003E-1,6.542546E-1,3.960534E-2,8.571463E-1,-4.0577352E-2,2.1428187E-1,-3.5273463E-2,-2.116782E-2,3.530156E-1,4.6787858E-1,3.4428135E-2,4.159514E-3,2.8908476E-5,9.071456E-1,-1.6399698E-2,2.423957E-1,3.7954476E-1,3.6348408E-1,4.598482E-1,5.9636426E-1,2.0258829E-2,4.0553164E-2,-7.0843883E-3,-2.0186137E-3,-7.7259834E-3,-1.7501632E-3,1.3369585E-3,-3.663042E-4,5.778683E-3,2.6052013E-2,-4.2991713E-4,3.844477E-3],"split_indices":[1,1,1,2,1,1,2,0,1,0,1,1,1,0,1,0,1,0,0,2,1,0,0,0,1,0,1,1,1,1,1,0,0,0,0,0,0,0,0,0,0,0,0],"split_type":[0,0,0,0,0,0,0,0,0,0,0,0,0,0,0,0,0,0,0,0,0,0,0,0,0,0,0,0,0,0,0,0,0,0,0,0,0,0,0,0,0,0,0],"sum_hessian":[1.249E3,3.97E2,8.52E2,3.43E2,5.4E1,5.15E2,3.37E2,1.92E2,1.51E2,3.7E1,1.7E1,4.59E2,5.6E1,1.8E2,1.57E2,7.7E1,7.4E1,9E0,8E0,1.31E2,3.28E2,2E1,3.6E1,5.2E1,1.05E2,2.8E1,4.6E1,6.8E1,6.3E1,3.9E1,2.89E2,3E1,7.5E1,2.8E1,1.8E1,1.8E1,5E1,2.2E1,4.1E1,3.5E1,4E0,2.14E2,7.5E1],"tree_param":{"num_deleted":"0","num_feature":"3","num_nodes":"43","size_leaf_vector":"1"}},{"base_weights":[4.2872992E-3,-2.763941E-1,1.2774234E-1,-2.9729843E-1,-1.4456977E-1,2.0190347E-2,2.91571E-1,-3.5811346E-2,-2.264596E-1,-5.2064834E-3,-2.8305043E-2,8.727343E-3,1.0996516E-1,3.5619467E-2,2.0807555E-1,-3.2776648E-1,-2.2434506E-3,1.0276216E-3,2.4272954E-2,2.8582537E-1,-5.4445595E-4,7.406871E-2,3.666121E-2,-3.6675766E-2,-1.9668683E-2,-1.31451425E-5,-4.7334746E-4,6.249947E-3,-1.9428525E-2,6.4423166E-2,1.5011027E-2,2.0776618E-2,3.4006577E-2,2.4276122E-2,1.5111099E-2,8.335402E-5,5.4789274E-3,5.3145615E-3,8.232626E-3,-9.4519484E-5,2.8165346E-3,3.1355792E-3,1.9092702E-3],"categories":[],"categories_nodes":[],"categories_segments":[],"categories_sizes":[],"default_left":[0,0,0,0,0,0,0,0,0,0,0,0,0,0,0,0,0,0,0,0,0,0,0,0,0,0,0,0,0,0,0,0,0,0,0,0,0,0,0,0,0,0,0],"id":6,"left_children":[1,3,5,7,9,11,13,-1,15,-1,-1,17,19,-1,21,23,25,27,29,31,-1,33,-1,-1,-1,-1,-1,35,-1,37,39,-1,-1,41,-1,-1,-1,-1,-1,-1,-1,-1,-1],"loss_changes":[4.2310173E1,9.848957E-1,1.4935956E1,1.3017921E0,6.6420054E-1,5.26963E-1,1.7388668E0,0E0,3.4291744E0,0E0,0E0,5.4556835E-2,1.1787229E0,0E0,3.138348E0,4.5940304E-1,2.5180634E-4,3.1333038E-1,5.518505E-2,2.6726961E-2,0E0,3.1089464E-1,0E0,0E0,0E0,0E0,0E0,7.856405E-2,0E0,1.278013E-3,2.6053382E-2,0E0,0E0,1.2728777E-3,0E0,0E0,0E0,0E0,0E0,0E0,0E0,0E0,0E0],"parents":[2147483647,0,0,1,1,2,2,3,3,4,4,5,5,6,6,8,8,11,11,12,12,14,14,15,15,16,16,17,17,18,18,19,19,21,21,27,27,29,29,30,30,33,33],"right_children":[2,4,6,8,10,12,14,-1,16,-1,-1,18,20,-1,22,24,26,28,30,32,-1,34,-1,-1,-1,-1,-1,36,-1,38,40,-1,-1,42,-1,-1,-1,-1,-1,-1,-1,-1,-1],"split_conditions":[3.5714024E-1,3.457454E-1,6.6060686E-1,1E0,3.4742346E-1,6.445462E-1,1E0,-3.5811346E-2,2.1428187E-1,-5.2064834E-3,-2.8305043E-2,5.7142997E-1,6.542546E-1,3.5619467E-2,9.071456E-1,1.4285365E-1,2.423957E-1,5.6424284E-1,5.771274E-1,6.5257657E-1,-5.4445595E-4,8.571463E-1,3.666121E-2,-3.6675766E-2,-1.9668683E-2,-1.31451425E-5,-4.7334746E-4,5.2409106E-1,-1.9428525E-2,5.722732E-1,5.9636426E-1,2.0776618E-2,3.4006577E-2,7.1595603E-1,1.5111099E-2,8.335402E-5,5.4789274E-3,5.3145615E-3,8.232626E-3,-9.4519484E-5,2.8165346E-3,3.1355792E-3,1.9092702E-3],"split_indices":[1,1,1,2,1,1,2,0,1,0,0,1,1,0,1,1,1,1,1,1,0,1,0,0,0,0,0,1,0,1,1,0,0,1,0,0,0,0,0,0,0,0,0],"split_type":[0,0,0,0,0,0,0,0,0,0,0,0,0,0,0,0,0,0,0,0,0,0,0,0,0,0,0,0,0,0,0,0,0,0,0,0,0,0,0,0,0,0,0],"sum_hessian":[1.219E3,3.72E2,8.47E2,3.2E2,5.2E1,5.12E2,3.35E2,1.7E2,1.5E2,3.2E1,2E1,4.55E2,5.7E1,1.87E2,1.48E2,1.03E2,4.7E1,3.05E2,1.5E2,2.2E1,3.5E1,8.1E1,6.7E1,7.8E1,2.5E1,2.6E1,2.1E1,2.98E2,7E0,2.7E1,1.23E2,1.1E1,1.1E1,5E1,3.1E1,2.69E2,2.9E1,1.9E1,8E0,5.6E1,6.7E1,1.9E1,3.1E1],"tree_param":{"num_deleted":"0","num_feature":"3","num_nodes":"43","size_leaf_vector":"1"}},{"base_weights":[2.0826857E-3,-2.414155E-1,1.3993843E-1,-3.2124758E-1,9.078132E-2,-2.1796525E-1,3.3082667E-1,-3.227577E-2,-1.4977975E-1,-2.7855767E-2,3.1073416E-2,-3.3734912E-1,1.0925266E-1,2.7470147E-2,3.3448663E-2,-2.5055373E-2,1.2665808E-2,-3.411342E-2,-2.1869783E-1,-2.9657153E-2,2.5483868E-1,-2.7874757E-2,1.3085005E-2,1.2636255E-1,2.8775383E-2,-2.4564162E-2,2.6252795E-2],"categories":[],"categories_nodes":[],"categories_segments":[],"categories_sizes":[],"default_left":[0,0,0,0,0,0,0,0,0,0,0,0,0,0,0,0,0,0,0,0,0,0,0,0,0,0,0],"id":7,"left_children":[1,3,5,7,9,11,13,-1,15,-1,-1,17,19,-1,-1,-1,-1,-1,21,-1,23,-1,-1,25,-1,-1,-1],"loss_changes":[4.132196E1,1.1830542E1,5.3771317E1,4.46167E-2,7.15419E0,1.074054E1,1.3496399E-2,0E0,1.7102335E-1,0E0,0E0,1.5665054E-2,4.4476705E0,0E0,0E0,0E0,0E0,0E0,2.2538644E-1,0E0,1.9622326E-1,0E0,0E0,7.2299105E-1,0E0,0E0,0E0],"parents":[2147483647,0,0,1,1,2,2,3,3,4,4,5,5,6,6,8,8,11,11,12,12,18,18,20,20,23,23],"right_children":[2,4,6,8,10,12,14,-1,16,-1,-1,18,20,-1,-1,-1,-1,-1,22,-1,24,-1,-1,26,-1,-1,-1],"split_conditions":[3.4487048E-1,6.9281805E-1,3.5714024E-1,3.4031814E-1,1.1870937E-1,7.399957E-1,4.116661E-1,-3.227577E-2,3.5714024E-1,-2.7855767E-2,3.1073416E-2,3.554538E-1,8.5711695E-2,2.7470147E-2,3.3448663E-2,-2.5055373E-2,1.2665808E-2,-3.411342E-2,6.5968186E-1,-2.9657153E-2,2.1428187E-1,-2.7874757E-2,1.3085005E-2,8.7240314E-1,2.8775383E-2,-2.4564162E-2,2.6252795E-2],"split_indices":[0,1,1,0,0,0,1,0,1,0,0,1,1,0,0,0,0,0,0,0,1,0,0,0,0,0,0],"split_type":[0,0,0,0,0,0,0,0,0,0,0,0,0,0,0,0,0,0,0,0,0,0,0,0,0,0,0],"sum_hessian":[1.229E3,4.44E2,7.85E2,3.58E2,8.6E1,2.73E2,5.12E2,3.54E2,4E0,3.2E1,5.4E1,2E2,7.3E1,3.6E1,4.76E2,3E0,1E0,1.92E2,8E0,1.9E1,5.4E1,7E0,1E0,1.2E1,4.2E1,3E0,9E0],"tree_param":{"num_deleted":"0","num_feature":"3","num_nodes":"27","size_leaf_vector":"1"}},{"base_weights":[-5.6386166E-3,-2.1942091E-1,1.2103399E-1,-2.8456662E-2,-1.9801114E-1,5.790299E-3,2.2043508E-1,-2.3576526E-1,-4.1936345E-2,1.7497786E-3,5.7472736E-2,2.821294E-2,1.9641657E-1,-2.6434377E-1,-1.5970668E-1,-1.5481717E-2,-2.4594314E-2,9.577964E-3,-2.0935897E-2,1.0673471E-1,-3.2019887E-2,1.4193146E-2,2.333855E-1,-2.88709E-2,-2.41341E-1,-2.5099924E-1,-2.2288433E-3,-1.4565691E-2,-8.0919065E-2,-1.6732214E-2,2.1902885E-2,-4.8461393E-3,-1.1975222E-1,2.030849E-2,2.0142565E-2,5.5746213E-2,-1.3093522E-1,8.97716E-2,-2.1890935E-2,1.9805503E-1,2.7759535E-2,-2.888071E-2,-1.31376255E-2,-2.5795186E-2,-1.3683528E-2,2.6428464E-3,-2.2801964E-3,-3.9859614E-3,7.741681E-4,-1.2628563E-2,-1.936869E-3,6.677559E-4,-4.860066E-3,3.351178E-3,3.5561956E-4,-1.8122962E-3,2.7962707E-3,-1.45267295E-2,5.2154163E-4,-4.298129E-3,5.357287E-3,1.6671762E-2,2.0840764E-5,-2.2328366E-2,5.0582684E-4,4.0252903E-3,2.4064414E-2,-7.409581E-3,3.4430374E-3,2.8099746E-2,5.048264E-4],"categories":[],"categories_nodes":[],"categories_segments":[],"categories_sizes":[],"default_left":[0,0,0,0,0,0,0,0,0,0,0,0,0,0,0,0,0,0,0,0,0,0,0,0,0,0,0,0,0,0,0,0,0,0,0,0,0,0,0,0,0,0,0,0,0,0,0,0,0,0,0,0,0,0,0,0,0,0,0,0,0,0,0,0,0,0,0,0,0,0,0],"id":8,"left_children":[1,3,5,-1,7,9,11,13,15,17,19,-1,21,23,25,-1,27,29,31,33,35,37,39,-1,41,43,45,47,49,51,53,55,57,59,-1,61,63,65,67,69,-1,-1,-1,-1,-1,-1,-1,-1,-1,-1,-1,-1,-1,-1,-1,-1,-1,-1,-1,-1,-1,-1,-1,-1,-1,-1,-1,-1,-1,-1,-1],"loss_changes":[3.3335396E1,5.8244896E-1,8.853708E0,0E0,2.0406914E0,7.486722E-2,5.59536E-1,5.664034E-1,1.3126555E-1,5.9514813E-2,1.18040785E-1,0E0,2.0311432E0,4.3536186E-2,1.1351883E0,0E0,3.3277802E-2,8.1109926E-2,1.361537E-1,1.3503358E-1,9.4113275E-2,1.4377849E-1,3.3707142E-1,0E0,5.362134E-1,4.3902397E-3,1.8289728E-2,3.0213352E-2,2.2684969E-2,6.0007177E-2,3.6088243E-2,3.317656E-2,3.902033E-2,2.3355585E-2,0E0,3.6943905E-2,6.3923344E-2,1.1732058E-1,1.0840003E-1,2.2877898E0,0E0,0E0,0E0,0E0,0E0,0E0,0E0,0E0,0E0,0E0,0E0,0E0,0E0,0E0,0E0,0E0,0E0,0E0,0E0,0E0,0E0,0E0,0E0,0E0,0E0,0E0,0E0,0E0,0E0,0E0,0E0],"parents":[2147483647,0,0,1,1,2,2,4,4,5,5,6,6,7,7,8,8,9,9,10,10,12,12,13,13,14,14,16,16,17,17,18,18,19,19,20,20,21,21,22,22,24,24,25,25,26,26,27,27,28,28,29,29,30,30,31,31,32,32,33,33,35,35,36,36,37,37,38,38,39,39],"right_children":[2,4,6,-1,8,10,12,14,16,18,20,-1,22,24,26,-1,28,30,32,34,36,38,40,-1,42,44,46,48,50,52,54,56,58,60,-1,62,64,66,68,70,-1,-1,-1,-1,-1,-1,-1,-1,-1,-1,-1,-1,-1,-1,-1,-1,-1,-1,-1,-1,-1,-1,-1,-1,-1,-1,-1,-1,-1,-1,-1],"split_conditions":[3.4487048E-1,1.0862903E-1,6.6719043E-1,-2.8456662E-2,1E0,6.4823544E-1,3.530156E-1,2.916916E-1,1.3061191E-1,5.7535887E-1,3.530156E-1,2.821294E-2,7.4467444E-1,2.3955257E-1,3.530156E-1,-1.5481717E-2,2.916916E-1,4.1400114E-1,1E0,6.5968186E-1,6.5968186E-1,7.0114183E-1,8.842018E-1,-2.88709E-2,3.530156E-1,3.4031814E-1,3.115984E-1,1.8279415E-1,3.139935E-1,3.8251483E-1,5.096838E-1,6.300042E-1,6.384015E-1,6.528402E-1,2.0142565E-2,6.528402E-1,1E0,6.948125E-1,7.2387713E-1,1E0,2.7759535E-2,-2.888071E-2,-1.31376255E-2,-2.5795186E-2,-1.3683528E-2,2.6428464E-3,-2.2801964E-3,-3.9859614E-3,7.741681E-4,-1.2628563E-2,-1.936869E-3,6.677559E-4,-4.860066E-3,3.351178E-3,3.5561956E-4,-1.8122962E-3,2.7962707E-3,-1.45267295E-2,5.2154163E-4,-4.298129E-3,5.357287E-3,1.6671762E-2,2.0840764E-5,-2.2328366E-2,5.0582684E-4,4.0252903E-3,2.4064414E-2,-7.409581E-3,3.4430374E-3,2.8099746E-2,5.048264E-4],"split_indices":[0,0,0,0,2,0,2,0,0,0,2,0,0,0,2,0,0,0,2,0,0,0,0,0,2,0,0,0,0,0,0,0,0,0,0,0,2,0,0,2,0,0,0,0,0,0,0,0,0,0,0,0,0,0,0,0,0,0,0,0,0,0,0,0,0,0,0,0,0,0,0],"split_type":[0,0,0,0,0,0,0,0,0,0,0,0,0,0,0,0,0,0,0,0,0,0,0,0,0,0,0,0,0,0,0,0,0,0,0,0,0,0,0,0,0,0,0,0,0,0,0,0,0,0,0,0,0,0,0,0,0,0,0,0,0,0,0,0,0,0,0,0,0,0,0],"sum_hessian":[1.229E3,4.57E2,7.72E2,1.1E2,3.47E2,3.58E2,4.14E2,2.79E2,6.8E1,3.33E2,2.5E1,1.13E2,3.01E2,2.01E2,7.8E1,8E0,6E1,2.48E2,8.5E1,1.6E1,9E0,5.1E1,2.5E2,9.2E1,1.09E2,4.9E1,2.9E1,5.2E1,8E0,7.9E1,1.69E2,7.4E1,1.1E1,9E0,7E0,5E0,4E0,1.6E1,3.5E1,1.42E2,1.08E2,7.5E1,3.4E1,4.5E1,4E0,1.2E1,1.7E1,2.4E1,2.8E1,4E0,4E0,4.6E1,3.3E1,1.03E2,6.6E1,5.3E1,2.1E1,9E0,2E0,3E0,6E0,1E0,4E0,2E0,2E0,1.3E1,3E0,1.8E1,1.7E1,9.9E1,4.3E1],"tree_param":{"num_deleted":"0","num_feature":"3","num_nodes":"71","size_leaf_vector":"1"}},{"base_weights":[-2.4068041E-3,-2.2839029E-1,9.916771E-2,-2.465104E-1,-1.1979774E-1,1.0627959E-2,2.3420544E-1,-2.8431025E-1,-1.998936E-1,-2.6602389E-3,-2.4294978E-2,-1.2053074E-2,5.144527E-2,2.772322E-1,1.8595007E-1,-3.1601768E-2,-2.6688E-1,-2.9322052E-2,-9.730936E-2,-3.8305175E-2,-6.6238777E-3,8.734442E-2,1.5377147E-2,3.0790886E-2,2.5563434E-1,2.7869567E-2,2.6180485E-1,-3.082689E-2,-2.1058486E-1,-1.2529477E-2,-7.5521655E-3,-2.567623E-2,-9.38307E-3,4.1860184E-3,-9.2090815E-3,4.4600483E-2,2.2770038E-1,2.1247739E-2,3.1399247E-4,-2.7403528E-2,2.880139E-2,-1.8926152E-5,4.9387645E-3,1.6880525E-2,2.97054E-2,-2.6492083E-2,5.498551E-3,-3.1721145E-3,7.7578763E-4,-1.0640897E-2,-6.099168E-4,3.8980693E-3,6.8982723E-3,1.5887516E-2,2.7582556E-2,2.4679755E-3,1.4785393E-3,-1.1687677E-2,8.1549175E-3],"categories":[],"categories_nodes":[],"categories_segments":[],"categories_sizes":[],"default_left":[0,0,0,0,0,0,0,0,0,0,0,0,0,0,0,0,0,0,0,0,0,0,0,0,0,0,0,0,0,0,0,0,0,0,0,0,0,0,0,0,0,0,0,0,0,0,0,0,0,0,0,0,0,0,0,0,0,0,0],"id":9,"left_children":[1,3,5,7,9,11,13,15,17,-1,-1,19,21,23,25,-1,27,-1,29,31,33,35,37,-1,39,41,43,-1,45,-1,-1,47,-1,-1,49,51,53,55,-1,57,-1,-1,-1,-1,-1,-1,-1,-1,-1,-1,-1,-1,-1,-1,-1,-1,-1,-1,-1],"loss_changes":[2.798082E1,7.142639E-1,1.0052681E1,5.123291E-1,6.3626003E-1,4.718415E-1,6.398468E-1,1.293087E-2,1.3883996E0,0E0,0E0,4.6495393E-2,2.3431322E-1,3.6571503E-2,1.9112897E0,0E0,2.1468258E-1,0E0,3.443867E-2,3.6859594E-2,3.460363E-2,5.3578687E-1,6.542539E-3,0E0,9.97674E-1,3.2009263E-2,3.038969E-1,0E0,7.937882E-1,0E0,0E0,9.7450875E-3,0E0,0E0,7.7944644E-2,7.0396513E-3,2.573502E-2,1.0101907E-3,0E0,1.2651142E-1,0E0,0E0,0E0,0E0,0E0,0E0,0E0,0E0,0E0,0E0,0E0,0E0,0E0,0E0,0E0,0E0,0E0,0E0,0E0],"parents":[2147483647,0,0,1,1,2,2,3,3,4,4,5,5,6,6,7,7,8,8,11,11,12,12,13,13,14,14,16,16,18,18,19,19,20,20,21,21,22,22,24,24,25,25,26,26,28,28,31,31,34,34,35,35,36,36,37,37,39,39],"right_children":[2,4,6,8,10,12,14,16,18,-1,-1,20,22,24,26,-1,28,-1,30,32,34,36,38,-1,40,42,44,-1,46,-1,-1,48,-1,-1,50,52,54,56,-1,58,-1,-1,-1,-1,-1,-1,-1,-1,-1,-1,-1,-1,-1,-1,-1,-1,-1,-1,-1],"split_conditions":[3.5714024E-1,3.457454E-1,6.6060686E-1,1E0,3.4742346E-1,5.722732E-1,1E0,2.6861864E-1,1.4285365E-1,-2.6602389E-3,-2.4294978E-2,3.9560542E-1,3.530156E-1,3.530156E-1,8.571463E-1,-3.1601768E-2,3.530156E-1,-2.9322052E-2,2.1428187E-1,3.875751E-1,4.116661E-1,6.4285976E-1,6.445462E-1,3.0790886E-2,6.9281805E-1,7.1595603E-1,9.071456E-1,-3.082689E-2,3.1489465E-1,-1.2529477E-2,-7.5521655E-3,3.7954476E-1,-9.38307E-3,4.1860184E-3,4.1969645E-1,6.365159E-1,6.5257657E-1,5.8030355E-1,3.1399247E-4,6.774705E-1,2.880139E-2,-1.8926152E-5,4.9387645E-3,1.6880525E-2,2.97054E-2,-2.6492083E-2,5.498551E-3,-3.1721145E-3,7.7578763E-4,-1.0640897E-2,-6.099168E-4,3.8980693E-3,6.8982723E-3,1.5887516E-2,2.7582556E-2,2.4679755E-3,1.4785393E-3,-1.1687677E-2,8.1549175E-3],"split_indices":[1,1,1,2,1,1,2,1,1,0,0,1,2,2,1,0,2,0,1,1,1,1,1,0,1,1,1,0,1,0,0,1,0,0,1,1,1,1,0,1,0,0,0,0,0,0,0,0,0,0,0,0,0,0,0,0,0,0,0],"split_type":[0,0,0,0,0,0,0,0,0,0,0,0,0,0,0,0,0,0,0,0,0,0,0,0,0,0,0,0,0,0,0,0,0,0,0,0,0,0,0,0,0,0,0,0,0,0,0,0,0,0,0,0,0,0,0,0,0,0,0],"sum_hessian":[1.217E3,3.77E2,8.4E2,3.22E2,5.5E1,5.08E2,3.32E2,1.75E2,1.47E2,3.2E1,2.3E1,3.27E2,1.81E2,1.73E2,1.59E2,5.6E1,1.19E2,7.6E1,7.1E1,5.5E1,2.72E2,9E1,9.1E1,6.6E1,1.07E2,5.2E1,1.07E2,6.6E1,5.3E1,2.9E1,4.2E1,4.6E1,9E0,1.3E1,2.59E2,7E1,2E1,6.1E1,3E1,1.1E1,9.6E1,2.3E1,2.9E1,3.1E1,7.6E1,4.4E1,9E0,3.9E1,7E0,7E0,2.52E2,5.9E1,1.1E1,1E1,1E1,3.8E1,2.3E1,6E0,5E0],"tree_param":{"num_deleted":"0","num_feature":"3","num_nodes":"59","size_leaf_vector":"1"}},{"base_weights":[5.6080613E-3,-2.0355186E-1,1.00946344E-1,-2.1983649E-1,-9.597946E-2,6.1127576E-3,2.10918E-1,-2.5933906E-2,-1.6800556E-1,3.7178103E-5,-2.1748198E-2,-1.4362276E-2,1.7639808E-2,2.7019624E-2,1.9023007E-1,-2.6784493E-2,-6.167281E-2,-6.969034E-3,-4.3275982E-2,8.414047E-2,1.4954694E-2,1.9687528E-2,2.1422946E-1,-1.0163067E-2,-3.0711707E-2,-1.751518E-2,1.225206E-3,-2.5088452E-3,-6.103221E-3,2.098377E-3,1.3327377E-2,-1.0723217E-2,1.7121892E-2,4.6692397E-3,-5.789486E-2,2.6146403E-2,1.799655E-1,-1.4019682E-3,-4.5249015E-3,2.2291297E-3,-3.0924983E-3,1.202888E-3,2.9605457E-3,-7.695558E-3,-2.3443024E-3,7.913823E-3,2.7085695E-2],"categories":[],"categories_nodes":[],"categories_segments":[],"categories_sizes":[],"default_left":[0,0,0,0,0,0,0,0,0,0,0,0,0,0,0,0,0,0,0,0,0,0,0,0,0,0,0,0,0,0,0,0,0,0,0,0,0,0,0,0,0,0,0,0,0,0,0],"id":10,"left_children":[1,3,5,7,9,11,13,-1,15,-1,-1,17,19,-1,21,-1,23,25,27,29,31,33,35,-1,37,39,-1,-1,-1,-1,-1,-1,41,-1,43,-1,45,-1,-1,-1,-1,-1,-1,-1,-1,-1,-1],"loss_changes":[2.4328564E1,6.480789E-1,8.738218E0,6.341381E-1,6.0884064E-1,1.066969E-1,4.244194E-1,0E0,1.5334454E0,0E0,0E0,3.454227E-2,5.0346106E-2,0E0,1.1868229E0,0E0,8.595276E-2,2.6769403E-2,9.125877E-3,3.133747E-2,7.57161E-2,8.022203E-2,3.6564827E-1,0E0,9.557221E-3,4.6062104E-2,0E0,0E0,0E0,0E0,0E0,0E0,1.7128095E-2,0E0,4.762698E-3,0E0,1.3623791E0,0E0,0E0,0E0,0E0,0E0,0E0,0E0,0E0,0E0,0E0],"parents":[2147483647,0,0,1,1,2,2,3,3,4,4,5,5,6,6,8,8,11,11,12,12,14,14,16,16,17,17,18,18,19,19,20,20,21,21,22,22,24,24,25,25,32,32,34,34,36,36],"right_children":[2,4,6,8,10,12,14,-1,16,-1,-1,18,20,-1,22,-1,24,26,28,30,32,34,36,-1,38,40,-1,-1,-1,-1,-1,-1,42,-1,44,-1,46,-1,-1,-1,-1,-1,-1,-1,-1,-1,-1],"split_conditions":[3.5714024E-1,3.457454E-1,6.445462E-1,1E0,3.4742346E-1,4.598482E-1,3.530156E-1,-2.5933906E-2,1.4285365E-1,3.7178103E-5,-2.1748198E-2,1E0,4.7590894E-1,2.7019624E-2,6.9281805E-1,-2.6784493E-2,2.1428187E-1,3.530156E-1,3.6348408E-1,4.6787858E-1,4.839393E-1,6.6060686E-1,1E0,-1.0163067E-2,2.423957E-1,3.875751E-1,1.225206E-3,-2.5088452E-3,-6.103221E-3,2.098377E-3,1.3327377E-2,-1.0723217E-2,5.8030355E-1,4.6692397E-3,6.774705E-1,2.6146403E-2,9.071456E-1,-1.4019682E-3,-4.5249015E-3,2.2291297E-3,-3.0924983E-3,1.202888E-3,2.9605457E-3,-7.695558E-3,-2.3443024E-3,7.913823E-3,2.7085695E-2],"split_indices":[1,1,1,2,1,1,2,0,1,0,0,2,1,0,1,0,1,2,1,1,1,1,2,0,1,1,0,0,0,0,0,0,1,0,1,0,1,0,0,0,0,0,0,0,0,0,0],"split_type":[0,0,0,0,0,0,0,0,0,0,0,0,0,0,0,0,0,0,0,0,0,0,0,0,0,0,0,0,0,0,0,0,0,0,0,0,0,0,0,0,0,0,0,0,0,0,0],"sum_hessian":[1.218E3,3.81E2,8.37E2,3.3E2,5.1E1,4.5E2,3.87E2,1.85E2,1.45E2,2.9E1,2.2E1,1.62E2,2.88E2,9.7E1,2.9E2,7.4E1,7.1E1,1.3E2,3.2E1,1E1,2.78E2,3.6E1,2.54E2,3E1,4.1E1,8.4E1,4.6E1,1.7E1,1.5E1,5E0,5E0,4E0,2.74E2,2.7E1,9E0,1.04E2,1.5E2,2E1,2.1E1,2.1E1,6.3E1,1.96E2,7.8E1,5E0,4E0,7.2E1,7.8E1],"tree_param":{"num_deleted":"0","num_feature":"3","num_nodes":"47","size_leaf_vector":"1"}},{"base_weights":[-2.7172908E-3,-1.646927E-1,8.4065914E-2,-1.9017848E-1,-5.8361705E-2,7.848184E-3,1.9024363E-1,-2.273547E-1,-1.4600486E-1,-1.6404556E-1,1.6784225E-2,-4.347948E-3,2.0989325E-2,2.3234976E-2,1.4381751E-1,-2.5948731E-2,-2.1176408E-1,-2.4307936E-2,-4.0835775E-2,-2.0306913E-2,-1.0501324E-2,3.6576055E-3,-8.0399273E-4,9.76328E-3,-6.911393E-3,4.2454578E-2,2.3663838E-3,4.340968E-2,2.4244983E-2,-2.5240524E-2,-1.569612E-1,-1.118796E-2,5.897442E-3,-4.8577297E-3,-1.0122983E-2,2.5472961E-2,2.1887466E-2,1.1826192E-2,-2.6722576E-3,1.2796627E-3,1.008988E-2,-2.1209314E-2,3.1460095E-3,1.4028813E-3,-5.2252173E-4,8.666599E-4,-1.5639827E-3,7.2914176E-3,1.7827619E-3,1.484865E-3,-5.6791305E-5],"categories":[],"categories_nodes":[],"categories_segments":[],"categories_sizes":[],"default_left":[0,0,0,0,0,0,0,0,0,0,0,0,0,0,0,0,0,0,0,0,0,0,0,0,0,0,0,0,0,0,0,0,0,0,0,0,0,0,0,0,0,0,0,0,0,0,0,0,0,0,0],"id":11,"left_children":[1,3,5,7,9,11,13,15,17,19,21,23,25,-1,27,-1,29,-1,31,-1,-1,-1,-1,-1,33,35,37,39,-1,-1,41,-1,43,45,-1,47,-1,49,-1,-1,-1,-1,-1,-1,-1,-1,-1,-1,-1,-1,-1],"loss_changes":[1.7205244E1,1.14604E0,6.4483285E0,5.317259E-1,6.698571E-1,7.461731E-2,6.1754036E-1,3.7729263E-2,1.6235514E0,5.9302926E-2,2.4859842E-2,6.3938916E-2,8.944269E-2,0E0,1.5839322E0,0E0,2.4992418E-1,0E0,2.5962812E-1,0E0,0E0,0E0,0E0,0E0,4.541475E-2,3.0599806E-1,3.3612322E-2,1.4126214E-1,0E0,0E0,6.091784E-1,0E0,4.414542E-3,3.4111746E-2,0E0,3.3519726E-2,0E0,3.4548137E-3,0E0,0E0,0E0,0E0,0E0,0E0,0E0,0E0,0E0,0E0,0E0,0E0,0E0],"parents":[2147483647,0,0,1,1,2,2,3,3,4,4,5,5,6,6,7,7,8,8,9,9,10,10,11,11,12,12,14,14,16,16,18,18,24,24,25,25,26,26,27,27,30,30,32,32,33,33,35,35,37,37],"right_children":[2,4,6,8,10,12,14,16,18,20,22,24,26,-1,28,-1,30,-1,32,-1,-1,-1,-1,-1,34,36,38,40,-1,-1,42,-1,44,46,-1,48,-1,50,-1,-1,-1,-1,-1,-1,-1,-1,-1,-1,-1,-1,-1],"split_conditions":[3.7954476E-1,3.457454E-1,6.6060686E-1,1E0,3.530156E-1,5.321214E-1,1E0,2.6861864E-1,1.4285365E-1,3.5714024E-1,3.4742346E-1,3.875751E-1,3.530156E-1,2.3234976E-2,9.071456E-1,-2.5948731E-2,3.530156E-1,-2.4307936E-2,2.1428187E-1,-2.0306913E-2,-1.0501324E-2,3.6576055E-3,-8.0399273E-4,9.76328E-3,5.2409106E-1,6.5257657E-1,6.445462E-1,8.571463E-1,2.4244983E-2,-2.5240524E-2,3.1489465E-1,-1.118796E-2,2.423957E-1,4.437875E-1,-1.0122983E-2,5.4818213E-1,2.1887466E-2,5.8030355E-1,-2.6722576E-3,1.2796627E-3,1.008988E-2,-2.1209314E-2,3.1460095E-3,1.4028813E-3,-5.2252173E-4,8.666599E-4,-1.5639827E-3,7.2914176E-3,1.7827619E-3,1.484865E-3,-5.6791305E-5],"split_indices":[1,1,1,2,2,1,2,1,1,1,1,1,2,0,1,0,2,0,1,0,0,0,0,0,1,1,1,1,0,0,1,0,1,1,0,1,0,1,0,0,0,0,0,0,0,0,0,0,0,0,0],"split_type":[0,0,0,0,0,0,0,0,0,0,0,0,0,0,0,0,0,0,0,0,0,0,0,0,0,0,0,0,0,0,0,0,0,0,0,0,0,0,0,0,0,0,0,0,0,0,0,0,0,0,0],"sum_hessian":[1.222E3,4.26E2,7.96E2,3.43E2,8.3E1,4.64E2,3.32E2,1.84E2,1.59E2,3.4E1,4.9E1,2.41E2,2.23E2,1.72E2,1.6E2,5.5E1,1.29E2,8.2E1,7.7E1,1.9E1,1.5E1,2.7E1,2.2E1,5E0,2.36E2,1.03E2,1.2E2,8E1,8E1,7.2E1,5.7E1,3E1,4.7E1,2.32E2,4E0,9.5E1,8E0,9.1E1,2.9E1,5.3E1,2.7E1,4.4E1,1.3E1,2.7E1,2E1,1.03E2,1.29E2,1.2E1,8.3E1,7.3E1,1.8E1],"tree_param":{"num_deleted":"0","num_feature":"3","num_nodes":"51","size_leaf_vector":"1"}},{"base_weights":[-1.7756841E-3,-2.0035917E-1,1.1276444E-1,-2.5274944E-1,2.2497054E-2,-1.5386441E-1,2.3338507E-1,-2.553019E-2,-1.4809407E-1,-2.4394618E-2,1.9299842E-2,-2.0625392E-1,2.3803968E-2,5.3935092E-2,2.4509747E-1,-2.1420276E-2,2.1146834E-2,-2.2764867E-2,-7.261232E-2,-2.1609753E-2,2.313885E-2,2.5652802E-2,2.3180394E-2,-4.1540503E-3,1.0460443E-2,-2.0266233E-2,2.6780574E-2],"categories":[],"categories_nodes":[],"categories_segments":[],"categories_sizes":[],"default_left":[0,0,0,0,0,0,0,0,0,0,0,0,0,0,0,0,0,0,0,0,0,0,0,0,0,0,0],"id":12,"left_children":[1,3,5,7,9,11,13,-1,15,-1,-1,17,-1,19,21,-1,23,-1,25,-1,-1,-1,-1,-1,-1,-1,-1],"loss_changes":[2.7795189E1,5.2246323E0,2.4960636E1,5.8891296E-2,3.95397E0,5.0177593E0,1.1091366E0,0E0,1.2760095E-1,0E0,0E0,5.9534454E-1,0E0,1.6792219E0,1.6664505E-2,0E0,2.5272258E-2,0E0,1.4266865E0,0E0,0E0,0E0,0E0,0E0,0E0,0E0,0E0],"parents":[2147483647,0,0,1,1,2,2,3,3,4,4,5,5,6,6,8,8,11,11,13,13,14,14,16,16,18,18],"right_children":[2,4,6,8,10,12,14,-1,16,-1,-1,18,-1,20,22,-1,24,-1,26,-1,-1,-1,-1,-1,-1,-1,-1],"split_conditions":[3.4792486E-1,6.9281805E-1,3.457454E-1,3.4031814E-1,1.1870937E-1,8.7240314E-1,3.5714024E-1,-2.553019E-2,3.5714024E-1,-2.4394618E-2,1.9299842E-2,7.3763704E-1,2.3803968E-2,6.558907E-1,6.6060686E-1,-2.1420276E-2,3.4487048E-1,-2.2764867E-2,2.1428187E-1,-2.1609753E-2,2.313885E-2,2.5652802E-2,2.3180394E-2,-4.1540503E-3,1.0460443E-2,-2.0266233E-2,2.6780574E-2],"split_indices":[0,1,1,0,0,0,1,0,1,0,0,0,0,0,1,0,0,0,1,0,0,0,0,0,0,0,0],"split_type":[0,0,0,0,0,0,0,0,0,0,0,0,0,0,0,0,0,0,0,0,0,0,0,0,0,0,0],"sum_hessian":[1.22E3,4.46E2,7.74E2,3.61E2,8.5E1,2.41E2,5.33E2,3.51E2,1E1,3.3E1,5.2E1,2.13E2,2.8E1,3.3E1,5E2,7E0,3E0,1.83E2,3E1,1.3E1,2E1,2.59E2,2.41E2,2E0,1E0,2.2E1,8E0],"tree_param":{"num_deleted":"0","num_feature":"3","num_nodes":"27","size_leaf_vector":"1"}},{"base_weights":[2.1942913E-4,-1.5140522E-1,7.08932E-2,-1.7196639E-1,-1.195336E-1,1.1167758E-2,1.571501E-1,-1.9556848E-2,-9.441652E-2,-1.9315055E-2,-4.2496543E-2,5.1833093E-3,6.1316743E-2,1.898991E-2,1.178516E-1,-4.408087E-3,-1.6179135E-2,-6.403863E-2,1.9024281E-3,-1.9566659E-2,8.714805E-3,1.5007754E-1,2.974516E-4,-1.4879134E-3,1.7260815E-1,-8.707233E-3,-3.6249936E-3,1.9964656E-4,-3.7020676E-2,1.0044246E-2,7.2664097E-3,8.150927E-3,1.8600347E-2,-2.741525E-3,2.0788657E-3,1.0832338E-2,1.9676847E-2,-2.7563092E-3,-5.7076653E-3,8.997586E-4,-2.325154E-3],"categories":[],"categories_nodes":[],"categories_segments":[],"categories_sizes":[],"default_left":[0,0,0,0,0,0,0,0,0,0,0,0,0,0,0,0,0,0,0,0,0,0,0,0,0,0,0,0,0,0,0,0,0,0,0,0,0,0,0,0,0],"id":13,"left_children":[1,3,5,7,9,11,13,-1,15,-1,17,19,21,-1,23,-1,-1,25,-1,27,29,31,-1,33,35,-1,-1,-1,37,-1,39,-1,-1,-1,-1,-1,-1,-1,-1,-1,-1],"loss_changes":[1.3212704E1,2.3632908E-1,4.3308516E0,4.134946E-1,8.8217545E-1,1.4913896E-1,4.2034245E-1,0E0,1.861754E-1,0E0,1.0459064E-1,3.9152883E-2,2.7401423E-1,0E0,1.0392616E0,0E0,0E0,3.396806E-2,0E0,2.1150248E-2,5.12176E-2,3.6569923E-2,0E0,3.0026104E-2,1.4797783E-1,0E0,0E0,0E0,4.306905E-3,0E0,2.0602344E-2,0E0,0E0,0E0,0E0,0E0,0E0,0E0,0E0,0E0,0E0],"parents":[2147483647,0,0,1,1,2,2,3,3,4,4,5,5,6,6,8,8,10,10,11,11,12,12,14,14,17,17,19,19,20,20,21,21,23,23,24,24,28,28,30,30],"right_children":[2,4,6,8,10,12,14,-1,16,-1,18,20,22,-1,24,-1,-1,26,-1,28,30,32,-1,34,36,-1,-1,-1,38,-1,40,-1,-1,-1,-1,-1,-1,-1,-1,-1,-1],"split_conditions":[3.5714024E-1,1E0,6.6060686E-1,3.457454E-1,1.4285365E-1,6.445462E-1,1E0,-1.9556848E-2,3.4742346E-1,-1.9315055E-2,2.423957E-1,3.9560542E-1,6.542546E-1,1.898991E-2,8.571463E-1,-4.408087E-3,-1.6179135E-2,2.1428187E-1,1.9024281E-3,3.6348408E-1,4.0363577E-1,6.5257657E-1,2.974516E-4,7.1595603E-1,9.071456E-1,-8.707233E-3,-3.6249936E-3,1.9964656E-4,3.875751E-1,1.0044246E-2,6.4285976E-1,8.150927E-3,1.8600347E-2,-2.741525E-3,2.0788657E-3,1.0832338E-2,1.9676847E-2,-2.7563092E-3,-5.7076653E-3,8.997586E-4,-2.325154E-3],"split_indices":[1,2,1,1,1,1,2,0,1,0,1,1,1,0,1,0,0,1,0,1,1,1,0,1,1,0,0,0,1,0,1,0,0,0,0,0,0,0,0,0,0],"split_type":[0,0,0,0,0,0,0,0,0,0,0,0,0,0,0,0,0,0,0,0,0,0,0,0,0,0,0,0,0,0,0,0,0,0,0,0,0,0,0,0,0],"sum_hessian":[1.231E3,3.91E2,8.4E2,2.35E2,1.56E2,4.97E2,3.43E2,1.79E2,5.6E1,7.9E1,7.7E1,4.45E2,5.2E1,1.85E2,1.58E2,3.3E1,2.3E1,5.7E1,2E1,5.5E1,3.9E2,2E1,3.2E1,5E1,1.08E2,3E1,2.7E1,2.5E1,3E1,5E0,3.85E2,8E0,1.2E1,2.3E1,2.7E1,3.1E1,7.7E1,2.2E1,8E0,3.65E2,2E1],"tree_param":{"num_deleted":"0","num_feature":"3","num_nodes":"41","size_leaf_vector":"1"}},{"base_weights":[2.3039267E-3,-1.856986E-1,1.03477925E-1,-2.0639439E-1,-1.3233887E-1,1.2930741E-2,1.8480793E-1,-2.2658093E-2,-1.8565771E-1,-2.2004327E-2,-1.566071E-2,8.409536E-3,8.831428E-2,1.6756429E-1,2.2614665E-2,-2.2500363E-1,-7.444122E-2,-2.7397089E-2,5.0741667E-3,-2.120101E-3,1.6110694E-2,1.9218536E-2,-4.5162443E-2,1.9546163E-1,4.176938E-2,-2.342844E-2,-1.7274665E-2,-8.5817546E-2,-5.2999234E-4,7.4386406E-3,-3.5127554E-2,1.1192817E-2,-1.5520349E-2,-2.396732E-2,2.1252545E-2,3.947102E-2,1.1206447E-2,-1.8244462E-2,-1.0188958E-2,1.5761901E-1,2.2848746E-2,1.6180322E-2,8.24288E-2,-7.1731354E-3,-1.5880568E-2,-1.5208506E-3,7.166076E-3,-8.878436E-3,-1.3014126E-3,1.7662327E-4,7.6295794E-3,-2.4671347E-3,-1.1959026E-4,-1.0011385E-2,-1.504986E-3,8.6333025E-3,1.622856E-3,2.924421E-3,5.912549E-3,-1.6991688E-3,1.6185379E-3,-4.5601074E-3,7.2897197E-4,2.216099E-2,9.2612254E-4,2.7822673E-3,-1.17278965E-2,1.4866376E-2,4.6023894E-3],"categories":[],"categories_nodes":[],"categories_segments":[],"categories_sizes":[],"default_left":[0,0,0,0,0,0,0,0,0,0,0,0,0,0,0,0,0,0,0,0,0,0,0,0,0,0,0,0,0,0,0,0,0,0,0,0,0,0,0,0,0,0,0,0,0,0,0,0,0,0,0,0,0,0,0,0,0,0,0,0,0,0,0,0,0,0,0,0,0],"id":14,"left_children":[1,3,5,7,9,11,13,-1,15,-1,17,19,21,23,-1,25,27,29,31,33,35,-1,37,39,41,-1,-1,43,-1,45,47,49,51,53,55,57,59,61,-1,63,-1,65,67,-1,-1,-1,-1,-1,-1,-1,-1,-1,-1,-1,-1,-1,-1,-1,-1,-1,-1,-1,-1,-1,-1,-1,-1,-1,-1],"loss_changes":[2.2996542E1,4.3981552E-1,5.7858744E0,8.476925E-2,1.2347693E0,1.263848E-1,2.5721645E-1,0E0,6.615176E-1,0E0,1.3036693E-2,2.8659066E-2,2.9983136E-1,1.0306025E0,0E0,1.4816284E-2,3.25813E-2,9.417377E-3,2.6939292E-3,7.710346E-2,2.292889E-2,0E0,1.3410879E-2,2.6643372E-1,5.5890247E-2,0E0,0E0,2.5621146E-2,0E0,1.1270987E-2,3.206755E-2,9.684423E-3,6.2591035E-4,5.145792E-2,2.2467263E-2,5.3060055E-3,2.4142437E-2,5.9206486E-3,0E0,1.0991988E0,0E0,5.7645302E-2,4.3794736E-2,0E0,0E0,0E0,0E0,0E0,0E0,0E0,0E0,0E0,0E0,0E0,0E0,0E0,0E0,0E0,0E0,0E0,0E0,0E0,0E0,0E0,0E0,0E0,0E0,0E0,0E0],"parents":[2147483647,0,0,1,1,2,2,3,3,4,4,5,5,6,6,8,8,10,10,11,11,12,12,13,13,15,15,16,16,17,17,18,18,19,19,20,20,22,22,23,23,24,24,27,27,29,29,30,30,31,31,32,32,33,33,34,34,35,35,36,36,37,37,39,39,41,41,42,42],"right_children":[2,4,6,8,10,12,14,-1,16,-1,18,20,22,24,-1,26,28,30,32,34,36,-1,38,40,42,-1,-1,44,-1,46,48,50,52,54,56,58,60,62,-1,64,-1,66,68,-1,-1,-1,-1,-1,-1,-1,-1,-1,-1,-1,-1,-1,-1,-1,-1,-1,-1,-1,-1,-1,-1,-1,-1,-1,-1],"split_conditions":[3.4031814E-1,2.6777184E-1,6.7435443E-1,1E0,3.530156E-1,6.5968186E-1,8.842018E-1,-2.2658093E-2,1.3061191E-1,-2.2004327E-2,1E0,4.7719103E-1,3.530156E-1,1E0,2.2614665E-2,8.800658E-2,2.4944462E-1,2.7790105E-1,3.2344124E-1,3.530156E-1,5.096838E-1,1.9218536E-2,1E0,7.3763704E-1,8.207018E-1,-2.342844E-2,-1.7274665E-2,2.2163232E-1,-5.2999234E-4,2.7634475E-1,2.9746273E-1,3.2100257E-1,3.295866E-1,3.4792486E-1,3.4792486E-1,5.0016665E-1,5.327974E-1,6.6719043E-1,-1.0188958E-2,3.530156E-1,2.2848746E-2,8.1189847E-1,8.4750646E-1,-7.1731354E-3,-1.5880568E-2,-1.5208506E-3,7.166076E-3,-8.878436E-3,-1.3014126E-3,1.7662327E-4,7.6295794E-3,-2.4671347E-3,-1.1959026E-4,-1.0011385E-2,-1.504986E-3,8.6333025E-3,1.622856E-3,2.924421E-3,5.912549E-3,-1.6991688E-3,1.6185379E-3,-4.5601074E-3,7.2897197E-4,2.216099E-2,9.2612254E-4,2.7822673E-3,-1.17278965E-2,1.4866376E-2,4.6023894E-3],"split_indices":[0,0,0,2,2,0,0,0,0,0,2,0,2,2,0,0,0,0,0,2,0,0,2,0,0,0,0,0,0,0,0,0,0,0,0,0,0,0,0,2,0,0,0,0,0,0,0,0,0,0,0,0,0,0,0,0,0,0,0,0,0,0,0,0,0,0,0,0,0],"split_type":[0,0,0,0,0,0,0,0,0,0,0,0,0,0,0,0,0,0,0,0,0,0,0,0,0,0,0,0,0,0,0,0,0,0,0,0,0,0,0,0,0,0,0,0,0,0,0,0,0,0,0,0,0,0,0,0,0,0,0,0,0,0,0,0,0,0,0,0,0],"sum_hessian":[1.207E3,4.22E2,7.85E2,3.02E2,1.2E2,3.72E2,4.13E2,1.48E2,1.54E2,6.8E1,5.2E1,3.52E2,2E1,2.95E2,1.18E2,1.13E2,4.1E1,3.3E1,1.9E1,1.49E2,2.03E2,1.1E1,9E0,2.41E2,5.4E1,9.3E1,2E1,3.5E1,6E0,6E0,2.7E1,1.5E1,4E0,7.7E1,7.2E1,3.4E1,1.69E2,7E0,2E0,1.15E2,1.26E2,3.4E1,2E1,3.1E1,4E0,5E0,1E0,7E0,2E1,1.4E1,1E0,2E0,2E0,7E0,7E1,4E0,6.8E1,2.4E1,1E1,2.5E1,1.44E2,3E0,4E0,8E1,3.5E1,3.2E1,2E0,6E0,1.4E1],"tree_param":{"num_deleted":"0","num_feature":"3","num_nodes":"69","size_leaf_vector":"1"}},{"base_weights":[1.7965065E-3,-7.756761E-2,1.0187368E-1,-1.3609739E-1,-2.4497584E-2,3.6013458E-2,1.3827617E-1,-1.6718125E-1,-1.00294754E-1,-7.329202E-2,-1.54878255E-2,2.3082377E-2,5.4708686E-2,1.6914482E-1,1.0182474E-1,-1.9306771E-2,-1.5244663E-1,-1.5262316E-1,5.284482E-3,-1.993424E-3,-1.4360513E-1,-2.5840273E-2,-6.484582E-3,3.6982097E-2,4.9965344E-3,1.2502806E-2,1.5792318E-2,1.8532006E-2,1.5544724E-1,3.0289633E-2,1.7939134E-2,-1.8674573E-2,-1.05742946E-1,-1.7368764E-2,-8.35596E-3,-1.5803507E-4,1.4008852E-3,-1.7273156E-2,-1.1461384E-2,-3.4126468E-2,-1.8603822E-2,7.08856E-3,-1.0361019E-2,5.0762333E-3,3.0331314E-3,-2.789878E-3,1.5562598E-2,1.1545175E-3,1.829699E-3,-7.598328E-2,1.6980574E-1,4.9465505E-4,8.589043E-3,-1.4745018E-2,2.7512829E-3,-6.8507874E-3,-2.8099117E-3,-7.132424E-4,-2.192637E-3,-5.9912778E-3,-6.2454934E-4,2.7426472E-4,2.3994956E-3,-1.3635935E-2,-4.3194047E-3,1.449656E-2,1.8920131E-2,-3.871169E-4,3.5618644E-4],"categories":[],"categories_nodes":[],"categories_segments":[],"categories_sizes":[],"default_left":[0,0,0,0,0,0,0,0,0,0,0,0,0,0,0,0,0,0,0,0,0,0,0,0,0,0,0,0,0,0,0,0,0,0,0,0,0,0,0,0,0,0,0,0,0,0,0,0,0,0,0,0,0,0,0,0,0,0,0,0,0,0,0,0,0,0,0,0,0],"id":15,"left_children":[1,3,5,7,9,11,13,15,17,19,21,23,25,27,29,-1,31,33,35,-1,37,39,41,43,45,-1,47,-1,49,51,-1,-1,53,-1,-1,-1,-1,-1,-1,55,57,-1,59,-1,-1,-1,61,-1,-1,63,65,67,-1,-1,-1,-1,-1,-1,-1,-1,-1,-1,-1,-1,-1,-1,-1,-1,-1],"loss_changes":[9.769279E0,2.1275034E0,1.2992473E0,3.460331E-1,1.5756986E-1,4.587835E-2,3.765998E-1,3.6554337E-2,8.516247E-1,2.072354E-1,2.8353348E-2,2.9227633E-2,2.1421492E-1,1.2845516E-2,8.9901006E-1,0E0,1.6447067E-1,1.3532972E-1,3.1364886E-3,0E0,4.684627E-4,7.879816E-3,5.022134E-2,4.5091733E-3,1.8508025E-2,0E0,3.4191925E-4,0E0,3.7178588E-1,1.4242724E-1,0E0,0E0,2.8750104E-1,0E0,0E0,0E0,0E0,0E0,0E0,1.1544861E-2,2.8165244E-3,0E0,3.1846993E-2,0E0,0E0,0E0,4.258286E-3,0E0,0E0,7.967882E-3,2.1714926E-2,7.7706965E-4,0E0,0E0,0E0,0E0,0E0,0E0,0E0,0E0,0E0,0E0,0E0,0E0,0E0,0E0,0E0,0E0,0E0],"parents":[2147483647,0,0,1,1,2,2,3,3,4,4,5,5,6,6,7,7,8,8,9,9,10,10,11,11,12,12,13,13,14,14,16,16,17,17,18,18,20,20,21,21,22,22,23,23,24,24,26,26,28,28,29,29,32,32,39,39,40,40,42,42,46,46,49,49,50,50,51,51],"right_children":[2,4,6,8,10,12,14,16,18,20,22,24,26,28,30,-1,32,34,36,-1,38,40,42,44,46,-1,48,-1,50,52,-1,-1,54,-1,-1,-1,-1,-1,-1,56,58,-1,60,-1,-1,-1,62,-1,-1,64,66,68,-1,-1,-1,-1,-1,-1,-1,-1,-1,-1,-1,-1,-1,-1,-1,-1,-1],"split_conditions":[5.7142997E-1,3.457454E-1,6.6060686E-1,1E0,3.5714024E-1,6.365159E-1,1E0,2.6861864E-1,2.1428187E-1,3.4742346E-1,4.3575716E-1,5.8030355E-1,3.530156E-1,3.530156E-1,9.071456E-1,-1.9306771E-2,3.530156E-1,1.4285365E-1,2.423957E-1,-1.993424E-3,3.554538E-1,3.530156E-1,4.437875E-1,5.722732E-1,5.9636426E-1,1.2502806E-2,6.445462E-1,1.8532006E-2,6.774705E-1,8.571463E-1,1.7939134E-2,-1.8674573E-2,3.1489465E-1,-1.7368764E-2,-8.35596E-3,-1.5803507E-4,1.4008852E-3,-1.7273156E-2,-1.1461384E-2,3.715144E-1,3.6348408E-1,7.08856E-3,4.598482E-1,5.0762333E-3,3.0331314E-3,-2.789878E-3,6.124249E-1,1.1545175E-3,1.829699E-3,6.6863716E-1,7.3909396E-1,7.1595603E-1,8.589043E-3,-1.4745018E-2,2.7512829E-3,-6.8507874E-3,-2.8099117E-3,-7.132424E-4,-2.192637E-3,-5.9912778E-3,-6.2454934E-4,2.7426472E-4,2.3994956E-3,-1.3635935E-2,-4.3194047E-3,1.449656E-2,1.8920131E-2,-3.871169E-4,3.5618644E-4],"split_indices":[1,1,1,2,1,1,2,1,1,1,1,1,2,2,1,0,2,1,1,0,1,2,1,1,1,0,1,0,1,1,0,0,1,0,0,0,0,0,0,1,1,0,1,0,0,0,1,0,0,1,1,1,0,0,0,0,0,0,0,0,0,0,0,0,0,0,0,0,0],"split_type":[0,0,0,0,0,0,0,0,0,0,0,0,0,0,0,0,0,0,0,0,0,0,0,0,0,0,0,0,0,0,0,0,0,0,0,0,0,0,0,0,0,0,0,0,0,0,0,0,0,0,0,0,0,0,0,0,0,0,0,0,0,0,0,0,0,0,0,0,0],"sum_hessian":[1.228E3,6.85E2,5.43E2,3.25E2,3.6E2,1.94E2,3.49E2,1.72E2,1.53E2,5.5E1,3.05E2,1.16E2,7.8E1,1.87E2,1.62E2,5.8E1,1.14E2,1.02E2,5.1E1,3.2E1,2.3E1,1.41E2,1.64E2,6.5E1,5.1E1,2.7E1,5.1E1,8E1,1.07E2,8.5E1,7.7E1,6.4E1,5E1,7.7E1,2.5E1,2.9E1,2.2E1,9E0,1.4E1,6.4E1,7.7E1,7E0,1.57E2,1.9E1,4.6E1,1.2E1,3.9E1,2.1E1,3E1,6E0,1.01E2,5.6E1,2.9E1,3.8E1,1.2E1,8E0,5.6E1,1.8E1,5.9E1,1.1E1,1.46E2,1.6E1,2.3E1,1E0,5E0,4.8E1,5.3E1,2.3E1,3.3E1],"tree_param":{"num_deleted":"0","num_feature":"3","num_nodes":"69","size_leaf_vector":"1"}},{"base_weights":[9.313631E-4,-1.3331328E-1,1.0741355E-1,-2.012076E-1,2.3703178E-2,-9.056112E-2,1.8827341E-1,-1.8054411E-1,-2.1302592E-2,-1.0486817E-1,1.458699E-1,-1.4935875E-1,2.0617127E-2,9.015798E-2,1.9300376E-1,-1.8941514E-2,-1.5104747E-1,-1.9867288E-2,4.9812596E-2,1.809098E-2,1.5546711E-2,-1.6422147E-2,-6.3584164E-2,-1.394895E-2,1.9292397E-2,2.0797787E-2,1.7448917E-2,-8.619095E-3,-1.7113226E-2,-1.7304634E-1,1.641762E-2,-1.0166985E-1,1.3332906E-2,-1.621148E-2,2.270154E-2,-2.1745598E-2,-4.096549E-3,-1.3454062E-2,-4.5866054E-3],"categories":[],"categories_nodes":[],"categories_segments":[],"categories_sizes":[],"default_left":[0,0,0,0,0,0,0,0,0,0,0,0,0,0,0,0,0,0,0,0,0,0,0,0,0,0,0,0,0,0,0,0,0,0,0,0,0,0,0],"id":16,"left_children":[1,3,5,7,9,11,13,15,-1,17,19,21,-1,23,25,-1,27,-1,29,31,-1,-1,33,-1,-1,-1,-1,-1,-1,35,-1,37,-1,-1,-1,-1,-1,-1,-1],"loss_changes":[1.7353745E1,5.729472E0,1.0854607E1,5.31168E-2,2.575561E0,3.4678843E0,2.0584106E-1,8.808136E-3,0E0,1.1706791E0,1.0019839E-1,1.999073E-1,0E0,5.933096E-1,9.068489E-2,0E0,3.4749806E-2,0E0,8.185056E-1,1.1016261E-1,0E0,0E0,7.812595E-1,0E0,0E0,0E0,0E0,0E0,0E0,5.5614084E-2,0E0,1.1664107E-3,0E0,0E0,0E0,0E0,0E0,0E0,0E0],"parents":[2147483647,0,0,1,1,2,2,3,3,4,4,5,5,6,6,7,7,9,9,10,10,11,11,13,13,14,14,16,16,18,18,19,19,22,22,29,29,31,31],"right_children":[2,4,6,8,10,12,14,16,-1,18,20,22,-1,24,26,-1,28,-1,30,32,-1,-1,34,-1,-1,-1,-1,-1,-1,36,-1,38,-1,-1,-1,-1,-1,-1,-1],"split_conditions":[4.3226236E-1,6.445462E-1,3.457454E-1,3.457454E-1,2.5979048E-1,8.7240314E-1,3.5714024E-1,2.994693E-1,-2.1302592E-2,8.571463E-1,6.5257657E-1,7.399957E-1,2.0617127E-2,6.5968186E-1,6.6060686E-1,-1.8941514E-2,2.6777184E-1,-1.9867288E-2,1.3061191E-1,3.4487048E-1,1.5546711E-2,-1.6422147E-2,2.1428187E-1,-1.394895E-2,1.9292397E-2,2.0797787E-2,1.7448917E-2,-8.619095E-3,-1.7113226E-2,1.1870937E-1,1.641762E-2,3.4031814E-1,1.3332906E-2,-1.621148E-2,2.270154E-2,-2.1745598E-2,-4.096549E-3,-1.3454062E-2,-4.5866054E-3],"split_indices":[0,1,1,1,0,0,1,1,0,1,1,0,0,0,1,0,0,0,0,0,0,0,1,0,0,0,0,0,0,0,0,0,0,0,0,0,0,0,0],"split_type":[0,0,0,0,0,0,0,0,0,0,0,0,0,0,0,0,0,0,0,0,0,0,0,0,0,0,0,0,0,0,0,0,0,0,0,0,0,0,0],"sum_hessian":[1.212E3,5.36E2,6.76E2,3.74E2,1.62E2,1.96E2,4.8E2,1.42E2,2.32E2,7.9E1,8.3E1,1.64E2,3.2E1,2.3E1,4.57E2,1.05E2,3.7E1,4.9E1,3E1,6E0,7.7E1,1.39E2,2.5E1,7E0,1.6E1,2.47E2,2.1E2,1E1,2.7E1,1E1,2E1,3E0,3E0,1.9E1,6E0,7E0,3E0,1E0,2E0],"tree_param":{"num_deleted":"0","num_feature":"3","num_nodes":"39","size_leaf_vector":"1"}},{"base_weights":[4.1256594E-3,-1.0193924E-1,5.2918177E-2,-1.4797367E-1,-8.844787E-2,3.7523773E-3,1.0764748E-1,-1.52761685E-2,-1.0144074E-2,-1.0696319E-1,1.3889453E-2,-1.41805755E-2,5.8156024E-3,1.4494419E-1,9.59221E-2,-1.4187534E-1,-8.499186E-2,-1.8875061E-3,1.8239398E-2,3.6786677E-4,-2.6884438E-2,4.380733E-3,2.155338E-2,8.673943E-3,1.501478E-2,-4.714765E-3,1.1245683E-1,-1.572876E-2,-1.1973588E-1,-1.4004526E-2,-1.9862343E-2,6.2472313E-3,9.131902E-3,-5.608049E-3,-1.1639759E-2,6.3254256E-3,-1.1335508E-2,5.210121E-3,1.616468E-4,1.9693412E-3,-7.97296E-2,1.5011606E-1,8.9037806E-2,-1.8501563E-3,-1.3838828E-2,-5.990464E-3,7.273904E-4,-4.013623E-3,1.1686313E-3,-3.6893514E-4,-2.2110401E-3,4.19931E-4,1.2407143E-3,-1.1065648E-2,-2.048606E-3,9.746289E-3,1.5367389E-2,3.7614226E-3,1.4525336E-2],"categories":[],"categories_nodes":[],"categories_segments":[],"categories_sizes":[],"default_left":[0,0,0,0,0,0,0,0,0,0,0,0,0,0,0,0,0,0,0,0,0,0,0,0,0,0,0,0,0,0,0,0,0,0,0,0,0,0,0,0,0,0,0,0,0,0,0,0,0,0,0,0,0,0,0,0,0,0,0],"id":17,"left_children":[1,3,5,7,9,11,13,-1,-1,15,17,19,21,23,25,27,29,-1,31,-1,33,35,37,-1,-1,39,41,-1,43,-1,45,-1,47,-1,49,51,-1,-1,-1,-1,53,55,57,-1,-1,-1,-1,-1,-1,-1,-1,-1,-1,-1,-1,-1,-1,-1,-1],"loss_changes":[6.3398066E0,2.2664404E-1,2.2571857E0,3.6644936E-3,5.718229E-1,1.6473342E-2,1.5971184E-1,0E0,0E0,1.8354392E-1,7.0428876E-3,1.053544E-2,8.893081E-3,1.5143633E-2,5.0805116E-1,1.426518E-2,5.673288E-1,0E0,1.6349256E-2,0E0,1.1364516E-2,8.451637E-2,2.001375E-2,0E0,0E0,8.213307E-2,2.1770287E-1,0E0,8.052313E-2,0E0,8.0843955E-2,0E0,4.9996814E-3,0E0,1.5000987E-3,4.6157856E-3,0E0,0E0,0E0,0E0,1.788748E-2,3.5681725E-3,4.6862864E-1,0E0,0E0,0E0,0E0,0E0,0E0,0E0,0E0,0E0,0E0,0E0,0E0,0E0,0E0,0E0,0E0],"parents":[2147483647,0,0,1,1,2,2,3,3,4,4,5,5,6,6,9,9,10,10,11,11,12,12,13,13,14,14,15,15,16,16,18,18,20,20,21,21,22,22,25,25,26,26,28,28,30,30,32,32,34,34,35,35,40,40,41,41,42,42],"right_children":[2,4,6,8,10,12,14,-1,-1,16,18,20,22,24,26,28,30,-1,32,-1,34,36,38,-1,-1,40,42,-1,44,-1,46,-1,48,-1,50,52,-1,-1,-1,-1,54,56,58,-1,-1,-1,-1,-1,-1,-1,-1,-1,-1,-1,-1,-1,-1,-1,-1],"split_conditions":[3.5714024E-1,3.530156E-1,6.445462E-1,3.554538E-1,3.1489465E-1,3.9560542E-1,3.530156E-1,-1.52761685E-2,-1.0144074E-2,1E0,3.1530225E-1,3.6348408E-1,6.365159E-1,6.5257657E-1,6.9281805E-1,2.6861864E-1,8.5711695E-2,-1.8875061E-3,3.2333255E-1,3.6786677E-4,3.715144E-1,6.2848556E-1,6.4285976E-1,8.673943E-3,1.501478E-2,6.6060686E-1,1E0,-1.572876E-2,2.763313E-1,-1.4004526E-2,2.1428187E-1,6.2472313E-3,3.3136284E-1,-5.608049E-3,3.875751E-1,5.722732E-1,-1.1335508E-2,5.210121E-3,1.616468E-4,1.9693412E-3,6.774705E-1,7.005307E-1,9.071456E-1,-1.8501563E-3,-1.3838828E-2,-5.990464E-3,7.273904E-4,-4.013623E-3,1.1686313E-3,-3.6893514E-4,-2.2110401E-3,4.19931E-4,1.2407143E-3,-1.1065648E-2,-2.048606E-3,9.746289E-3,1.5367389E-2,3.7614226E-3,1.4525336E-2],"split_indices":[1,2,1,1,1,1,2,0,0,2,1,1,1,1,1,1,1,0,1,0,1,1,1,0,0,1,2,0,1,0,1,0,1,0,1,1,0,0,0,0,1,1,1,0,0,0,0,0,0,0,0,0,0,0,0,0,0,0,0],"split_type":[0,0,0,0,0,0,0,0,0,0,0,0,0,0,0,0,0,0,0,0,0,0,0,0,0,0,0,0,0,0,0,0,0,0,0,0,0,0,0,0,0,0,0,0,0,0,0,0,0,0,0,0,0,0,0,0,0,0,0],"sum_hessian":[1.223E3,3.85E2,8.38E2,8.5E1,3E2,4.42E2,3.96E2,7.5E1,1E1,2.54E2,4.6E1,4.5E1,3.97E2,9.2E1,3.04E2,9.6E1,1.58E2,5E0,4.1E1,1.9E1,2.6E1,3.65E2,3.2E1,9E0,8.3E1,4.3E1,2.61E2,5.3E1,4.3E1,8.5E1,7.3E1,6E0,3.5E1,8E0,1.8E1,3.6E2,5E0,1.2E1,2E1,3.3E1,1E1,9.8E1,1.63E2,7E0,3.6E1,2.9E1,4.4E1,1E0,3.4E1,1.1E1,7E0,2.68E2,9.2E1,6E0,4E0,8E0,9E1,8.6E1,7.7E1],"tree_param":{"num_deleted":"0","num_feature":"3","num_nodes":"59","size_leaf_vector":"1"}},{"base_weights":[-2.090078E-3,-1.3999587E-1,8.6003914E-2,-1.625914E-1,-7.9651274E-2,4.5206784E-3,1.4427547E-1,-1.80889E-1,-1.4084782E-1,-1.371654E-1,-1.550065E-2,-1.7628029E-2,8.966917E-3,1.3007805E-1,1.8505637E-2,-1.9810466E-2,-1.6193211E-1,-1.89336E-2,-2.3185061E-2,-1.6850946E-2,-4.4162426E-2,-2.6040128E-2,-1.0118157E-2,-3.9593643E-3,-2.291936E-2,4.5840684E-3,2.1979602E-2,1.5933125E-1,4.0354705E-3,-1.9398948E-2,-7.519755E-2,-1.3575647E-2,-3.436136E-2,-6.1934413E-3,-8.566203E-2,-3.4310985E-2,-4.5968443E-3,3.8264833E-2,-1.4591664E-2,-1.085354E-2,4.9726637E-3,-3.9999884E-2,-1.4479152E-2,4.3905135E-2,2.9131123E-3,3.9784368E-2,1.8187757E-3,1.3286442E-1,1.838481E-2,-7.0233555E-3,5.6952047E-3,-1.3857166E-2,3.7108592E-4,-3.0956531E-3,5.5313683E-3,-1.1294209E-2,-1.0624412E-3,-1.7235115E-3,1.7438267E-3,-1.1678329E-2,-6.0086916E-3,-9.0983714E-4,-4.2652083E-3,-1.7804051E-3,4.2468487E-4,6.338483E-3,8.763224E-4,-6.946023E-4,-2.738104E-3,-1.6173769E-3,-2.4627405E-4,-1.5085464E-3,-6.240006E-3,1.2432689E-4,-2.3800768E-3,1.310951E-3,9.086135E-3,-3.6799762E-4,9.340229E-4,5.6192954E-3,3.3675332E-3,1.4477986E-3,-3.2141206E-3,1.768464E-2,8.9145346E-5,5.7494146E-4,-3.9764335E-3],"categories":[],"categories_nodes":[],"categories_segments":[],"categories_sizes":[],"default_left":[0,0,0,0,0,0,0,0,0,0,0,0,0,0,0,0,0,0,0,0,0,0,0,0,0,0,0,0,0,0,0,0,0,0,0,0,0,0,0,0,0,0,0,0,0,0,0,0,0,0,0,0,0,0,0,0,0,0,0,0,0,0,0,0,0,0,0,0,0,0,0,0,0,0,0,0,0,0,0,0,0,0,0,0,0,0,0],"id":18,"left_children":[1,3,5,7,9,11,13,15,17,19,21,23,25,27,-1,-1,29,-1,31,-1,33,35,37,39,41,43,45,47,49,-1,51,53,55,57,59,61,63,65,67,69,-1,71,73,75,77,79,81,83,-1,85,-1,-1,-1,-1,-1,-1,-1,-1,-1,-1,-1,-1,-1,-1,-1,-1,-1,-1,-1,-1,-1,-1,-1,-1,-1,-1,-1,-1,-1,-1,-1,-1,-1,-1,-1,-1,-1],"loss_changes":[1.4991352E1,6.429024E-1,3.5747094E0,1.133728E-1,4.885863E-1,3.1178776E-2,2.3010159E-1,2.8622627E-2,9.3127203E-1,1.966145E-1,3.3671558E-3,3.742503E-3,1.4898827E-2,1.2124295E0,0E0,0E0,2.4677777E-1,0E0,4.796006E-3,0E0,2.9407721E-2,3.5667177E-3,1.0081781E-2,6.4616413E-3,4.8990343E-3,1.2881447E-2,2.3618922E-2,1.4882469E-1,3.7267294E-2,0E0,1.3553448E-1,3.5238326E-2,3.9835915E-2,3.1708204E-3,1.4621764E-4,2.766449E-3,8.932145E-4,2.4088654E-3,3.8189124E-3,6.29783E-4,0E0,5.755717E-3,3.9866664E-3,1.0377216E-2,8.12791E-3,1.6161054E-3,1.422235E-2,7.6602745E-1,0E0,2.2392849E-2,0E0,0E0,0E0,0E0,0E0,0E0,0E0,0E0,0E0,0E0,0E0,0E0,0E0,0E0,0E0,0E0,0E0,0E0,0E0,0E0,0E0,0E0,0E0,0E0,0E0,0E0,0E0,0E0,0E0,0E0,0E0,0E0,0E0,0E0,0E0,0E0,0E0],"parents":[2147483647,0,0,1,1,2,2,3,3,4,4,5,5,6,6,7,7,8,8,9,9,10,10,11,11,12,12,13,13,16,16,18,18,20,20,21,21,22,22,23,23,24,24,25,25,26,26,27,27,28,28,30,30,31,31,32,32,33,33,34,34,35,35,36,36,37,37,38,38,39,39,41,41,42,42,43,43,44,44,45,45,46,46,47,47,49,49],"right_children":[2,4,6,8,10,12,14,16,18,20,22,24,26,28,-1,-1,30,-1,32,-1,34,36,38,40,42,44,46,48,50,-1,52,54,56,58,60,62,64,66,68,70,-1,72,74,76,78,80,82,84,-1,86,-1,-1,-1,-1,-1,-1,-1,-1,-1,-1,-1,-1,-1,-1,-1,-1,-1,-1,-1,-1,-1,-1,-1,-1,-1,-1,-1,-1,-1,-1,-1,-1,-1,-1,-1,-1,-1],"split_conditions":[3.6683455E-1,2.828273E-1,6.5968186E-1,1E0,3.530156E-1,4.081679E-1,8.842018E-1,2.3955257E-1,1.3061191E-1,3.4031814E-1,3.054235E-1,3.7903056E-1,6.036637E-1,1E0,1.8505637E-2,-1.9810466E-2,3.530156E-1,-1.89336E-2,2.0263861E-1,-1.6850946E-2,3.520214E-1,1E0,3.0826405E-1,1E0,3.8790655E-1,4.1707024E-1,3.530156E-1,7.3763704E-1,8.601798E-1,-1.9398948E-2,2.5979048E-1,1.8988788E-1,2.1775798E-1,3.4792486E-1,3.5562822E-1,2.8735203E-1,2.8485796E-1,1E0,3.4487048E-1,3.744989E-1,4.9726637E-3,3.530156E-1,3.9633632E-1,3.530156E-1,3.530156E-1,6.1748517E-1,6.456623E-1,3.530156E-1,1.838481E-2,8.1189847E-1,5.6952047E-3,-1.3857166E-2,3.7108592E-4,-3.0956531E-3,5.5313683E-3,-1.1294209E-2,-1.0624412E-3,-1.7235115E-3,1.7438267E-3,-1.1678329E-2,-6.0086916E-3,-9.0983714E-4,-4.2652083E-3,-1.7804051E-3,4.2468487E-4,6.338483E-3,8.763224E-4,-6.946023E-4,-2.738104E-3,-1.6173769E-3,-2.4627405E-4,-1.5085464E-3,-6.240006E-3,1.2432689E-4,-2.3800768E-3,1.310951E-3,9.086135E-3,-3.6799762E-4,9.340229E-4,5.6192954E-3,3.3675332E-3,1.4477986E-3,-3.2141206E-3,1.768464E-2,8.9145346E-5,5.7494146E-4,-3.9764335E-3],"split_indices":[0,0,0,2,2,0,0,0,0,0,0,0,0,2,0,0,2,0,0,0,0,2,0,2,0,0,2,0,0,0,0,0,0,0,0,0,0,2,0,0,0,2,0,2,2,0,0,2,0,0,0,0,0,0,0,0,0,0,0,0,0,0,0,0,0,0,0,0,0,0,0,0,0,0,0,0,0,0,0,0,0,0,0,0,0,0,0],"split_type":[0,0,0,0,0,0,0,0,0,0,0,0,0,0,0,0,0,0,0,0,0,0,0,0,0,0,0,0,0,0,0,0,0,0,0,0,0,0,0,0,0,0,0,0,0,0,0,0,0,0,0,0,0,0,0,0,0,0,0,0,0,0,0,0,0,0,0,0,0,0,0,0,0,0,0,0,0,0,0,0,0,0,0,0,0,0,0],"sum_hessian":[1.232E3,4.8E2,7.52E2,3.48E2,1.32E2,3.14E2,4.38E2,1.85E2,1.63E2,6.9E1,6.3E1,5.2E1,2.62E2,3.28E2,1.1E2,9.2E1,9.3E1,1.15E2,4.8E1,5.1E1,1.8E1,2E1,4.3E1,1.5E1,3.7E1,1.97E2,6.5E1,2.66E2,6.2E1,6.7E1,2.6E1,2.7E1,2.1E1,1E1,8E0,1.4E1,6E0,3E0,4E1,1.4E1,1E0,1.1E1,2.6E1,7E0,1.9E2,3.4E1,3.1E1,1.31E2,1.35E2,5.2E1,1E1,1.4E1,1.2E1,2.2E1,5E0,4E0,1.7E1,7E0,3E0,2E0,6E0,4E0,1E1,2E0,4E0,1E0,2E0,2.6E1,1.4E1,8E0,6E0,6E0,5E0,1E1,1.6E1,5E0,2E0,9.4E1,9.6E1,7E0,2.7E1,2.3E1,8E0,9.8E1,3.3E1,3.8E1,1.4E1],"tree_param":{"num_deleted":"0","num_feature":"3","num_nodes":"87","size_leaf_vector":"1"}},{"base_weights":[-1.766585E-3,-7.39243E-2,1.3006087E-1,-1.5735595E-1,7.391832E-2,2.3679798E-3,1.6252458E-1,-1.4408784E-1,-1.740989E-1,-9.344543E-2,1.3485941E-1,-1.0864244E-1,1.6431918E-2,1.6908377E-1,1.4258054E-1,-1.478248E-2,-1.2488005E-2,-1.773753E-2,-1.2415539E-2,-1.6783265E-2,3.1168532E-2,4.1774005E-2,1.3781974E-2,-1.1227306E-1,-9.497474E-4,1.3434559E-1,1.728963E-2,5.9093796E-2,1.519272E-2,-1.6092491E-1,1.5085025E-1,-9.744401E-3,1.44793615E-2,-1.330713E-1,-8.026348E-2,1.3807188E-2,1.3141542E-3,7.417454E-3,3.9879866E-2,-1.8284839E-2,-3.420503E-3,1.9754125E-2,1.0715208E-2,-1.1378297E-2,-1.8019257E-2,-1.2015369E-2,2.2572245E-2,4.871972E-3,2.1070049E-3],"categories":[],"categories_nodes":[],"categories_segments":[],"categories_sizes":[],"default_left":[0,0,0,0,0,0,0,0,0,0,0,0,0,0,0,0,0,0,0,0,0,0,0,0,0,0,0,0,0,0,0,0,0,0,0,0,0,0,0,0,0,0,0,0,0,0,0,0,0],"id":19,"left_children":[1,3,5,7,9,11,13,15,17,19,21,23,-1,25,27,-1,-1,-1,-1,-1,29,31,-1,33,-1,35,-1,37,-1,39,41,-1,-1,43,45,-1,-1,-1,47,-1,-1,-1,-1,-1,-1,-1,-1,-1,-1],"loss_changes":[1.1804951E1,9.904104E0,1.8194394E0,8.887577E-2,2.970408E0,1.6358966E0,2.167797E-2,2.4995804E-3,1.4305115E-2,7.282665E-1,5.2937508E-2,1.8371344E-2,0E0,1.0941505E-2,6.3592196E-2,0E0,0E0,0E0,0E0,0E0,7.1397775E-1,1.2884676E-1,0E0,2.3937881E-2,0E0,1.1734784E-2,0E0,2.2929162E-4,0E0,2.7083337E-2,1.7598927E-2,0E0,0E0,6.763935E-3,3.0785573E-1,0E0,0E0,0E0,1.3740547E-4,0E0,0E0,0E0,0E0,0E0,0E0,0E0,0E0,0E0,0E0],"parents":[2147483647,0,0,1,1,2,2,3,3,4,4,5,5,6,6,7,7,8,8,9,9,10,10,11,11,13,13,14,14,20,20,21,21,23,23,25,25,27,27,29,29,30,30,33,33,34,34,38,38],"right_children":[2,4,6,8,10,12,14,16,18,20,22,24,-1,26,28,-1,-1,-1,-1,-1,30,32,-1,34,-1,36,-1,38,-1,40,42,-1,-1,44,46,-1,-1,-1,48,-1,-1,-1,-1,-1,-1,-1,-1,-1,-1],"split_conditions":[6.5968186E-1,6.445462E-1,3.1489465E-1,3.5714024E-1,2.5979048E-1,8.842018E-1,6.6060686E-1,5.7535887E-1,3.139935E-1,8.571463E-1,6.5257657E-1,8.7240314E-1,1.6431918E-2,6.9197327E-1,7.005307E-1,-1.478248E-2,-1.2488005E-2,-1.773753E-2,-1.2415539E-2,-1.6783265E-2,1.3061191E-1,3.4487048E-1,1.3781974E-2,2.1428187E-1,-9.497474E-4,6.4285976E-1,1.728963E-2,7.3418313E-1,1.519272E-2,1.1870937E-1,9.071456E-1,-9.744401E-3,1.44793615E-2,7.8568995E-2,7.3763704E-1,1.3807188E-2,1.3141542E-3,7.417454E-3,6.774705E-1,-1.8284839E-2,-3.420503E-3,1.9754125E-2,1.0715208E-2,-1.1378297E-2,-1.8019257E-2,-1.2015369E-2,2.2572245E-2,4.871972E-3,2.1070049E-3],"split_indices":[0,1,1,1,0,0,1,0,0,1,1,0,0,0,1,0,0,0,0,0,0,0,0,1,0,1,0,0,0,0,1,0,0,1,0,0,0,0,1,0,0,0,0,0,0,0,0,0,0],"split_type":[0,0,0,0,0,0,0,0,0,0,0,0,0,0,0,0,0,0,0,0,0,0,0,0,0,0,0,0,0,0,0,0,0,0,0,0,0,0,0,0,0,0,0,0,0,0,0,0,0],"sum_hessian":[1.239E3,8.01E2,4.38E2,5.12E2,2.89E2,8.9E1,3.49E2,2.91E2,2.21E2,7.7E1,2.12E2,5.3E1,3.6E1,2.57E2,9.2E1,2.38E2,5.3E1,2.05E2,1.6E1,4.8E1,2.9E1,7E0,2.05E2,5.1E1,2E0,2.9E1,2.28E2,1E1,8.2E1,1.1E1,1.8E1,3E0,4E0,2.9E1,2.2E1,2.8E1,1E0,4E0,6E0,9E0,2E0,7E0,1.1E1,2.3E1,6E0,2E1,2E0,3E0,3E0],"tree_param":{"num_deleted":"0","num_feature":"3","num_nodes":"49","size_leaf_vector":"1"}},{"base_weights":[-2.4125522E-3,-1.1985297E-1,6.43847E-2,-1.3164726E-1,-8.0739394E-2,3.4938594E-3,1.1470203E-1,-1.5826993E-2,-1.2042672E-1,-1.3382861E-1,-1.1589774E-2,6.788138E-4,3.9955076E-2,1.0231406E-1,1.5027458E-2,-1.4705198E-1,-4.2794447E-2,-1.4066282E-2,-6.1012898E-3,-1.5067006E-3,-3.367209E-2,-9.539699E-3,7.3549207E-3,6.522174E-2,-4.287213E-4,1.247171E-1,1.7961184E-2,-1.6112022E-2,-1.300669E-1,-1.2409749E-2,-1.3713909E-2,1.2859378E-2,-8.028374E-3,-5.1619526E-2,-1.9536417E-2,4.0512573E-2,-1.1391404E-2,1.1052976E-2,-9.418959E-5,2.7838022E-2,1.0930967E-2,8.973078E-3,-3.0434253E-2,1.0896791E-1,1.5567464E-2,6.0388837E-3,8.889111E-3,-1.5852215E-2,-5.0880555E-3,-2.730583E-3,7.3596695E-4,3.334208E-4,5.405554E-3,-9.459032E-4,-7.000715E-5,-6.133267E-3,-2.1462163E-3,-4.50556E-4,-2.8806063E-3,7.6420987E-3,-8.900027E-4,-2.1103749E-3,-2.4992775E-4,9.2480186E-4,5.685429E-3,-4.1252575E-3,3.073289E-4,-1.0380641E-3,4.57004E-3,-5.3940057E-3,1.2433016E-3,1.4900418E-2,4.2207893E-3,-9.78909E-5,3.2026034E-3],"categories":[],"categories_nodes":[],"categories_segments":[],"categories_sizes":[],"default_left":[0,0,0,0,0,0,0,0,0,0,0,0,0,0,0,0,0,0,0,0,0,0,0,0,0,0,0,0,0,0,0,0,0,0,0,0,0,0,0,0,0,0,0,0,0,0,0,0,0,0,0,0,0,0,0,0,0,0,0,0,0,0,0,0,0,0,0,0,0,0,0,0,0,0,0],"id":20,"left_children":[1,3,5,7,9,11,13,-1,15,17,19,21,23,25,-1,27,29,-1,-1,31,33,35,37,39,41,43,45,-1,47,-1,49,51,53,55,57,59,61,63,65,67,-1,-1,69,71,-1,73,-1,-1,-1,-1,-1,-1,-1,-1,-1,-1,-1,-1,-1,-1,-1,-1,-1,-1,-1,-1,-1,-1,-1,-1,-1,-1,-1,-1,-1],"loss_changes":[9.844967E0,1.9927025E-1,2.450691E0,8.489466E-2,3.9492768E-1,3.7231192E-2,1.7763901E-1,0E0,5.0838447E-1,2.1773577E-2,1.0636831E-2,2.3128483E-2,2.655742E-2,6.1760116E-1,0E0,2.3249626E-2,1.5198001E-1,0E0,0E0,3.2887298E-3,2.7970262E-3,1.2880892E-2,5.6482237E-3,2.3327768E-2,3.2489013E-2,1.0931349E-1,5.8658548E-2,0E0,1.9247508E-1,0E0,1.42360525E-2,4.136173E-3,2.4500093E-4,4.4120476E-4,1.2635197E-3,9.551788E-3,1.1174496E-2,1.0799931E-2,9.122194E-3,7.30116E-3,0E0,0E0,9.739304E-3,4.6145487E-1,0E0,1.1156068E-2,0E0,0E0,0E0,0E0,0E0,0E0,0E0,0E0,0E0,0E0,0E0,0E0,0E0,0E0,0E0,0E0,0E0,0E0,0E0,0E0,0E0,0E0,0E0,0E0,0E0,0E0,0E0,0E0,0E0],"parents":[2147483647,0,0,1,1,2,2,3,3,4,4,5,5,6,6,8,8,9,9,10,10,11,11,12,12,13,13,15,15,16,16,19,19,20,20,21,21,22,22,23,23,24,24,25,25,26,26,28,28,30,30,31,31,32,32,33,33,34,34,35,35,36,36,37,37,38,38,39,39,42,42,43,43,45,45],"right_children":[2,4,6,8,10,12,14,-1,16,18,20,22,24,26,-1,28,30,-1,-1,32,34,36,38,40,42,44,46,-1,48,-1,50,52,54,56,58,60,62,64,66,68,-1,-1,70,72,-1,74,-1,-1,-1,-1,-1,-1,-1,-1,-1,-1,-1,-1,-1,-1,-1,-1,-1,-1,-1,-1,-1,-1,-1,-1,-1,-1,-1,-1,-1],"split_conditions":[3.4792486E-1,2.828273E-1,6.6719043E-1,8.800658E-2,3.530156E-1,6.4823544E-1,8.9137095E-1,-1.5826993E-2,1E0,3.4031814E-1,3.2761255E-1,4.6749163E-1,3.530156E-1,1E0,1.5027458E-2,2.4364543E-1,1.3061191E-1,-1.4066282E-2,-6.1012898E-3,2.9445305E-1,3.33805E-1,3.520214E-1,5.9349227E-1,6.5968186E-1,6.528402E-1,7.744546E-1,8.7240314E-1,-1.6112022E-2,3.530156E-1,-1.2409749E-2,2.0823853E-1,2.916916E-1,3.2100257E-1,1E0,3.4031814E-1,3.530156E-1,3.530156E-1,5.8878094E-1,5.976298E-1,6.528402E-1,1.0930967E-2,8.973078E-3,6.634485E-1,3.530156E-1,1.5567464E-2,8.4750646E-1,8.889111E-3,-1.5852215E-2,-5.0880555E-3,-2.730583E-3,7.3596695E-4,3.334208E-4,5.405554E-3,-9.459032E-4,-7.000715E-5,-6.133267E-3,-2.1462163E-3,-4.50556E-4,-2.8806063E-3,7.6420987E-3,-8.900027E-4,-2.1103749E-3,-2.4992775E-4,9.2480186E-4,5.685429E-3,-4.1252575E-3,3.073289E-4,-1.0380641E-3,4.57004E-3,-5.3940057E-3,1.2433016E-3,1.4900418E-2,4.2207893E-3,-9.78909E-5,3.2026034E-3],"split_indices":[0,0,0,0,2,0,0,0,2,0,0,0,2,2,0,0,0,0,0,0,0,0,0,0,0,0,0,0,2,0,0,0,0,2,0,2,2,0,0,0,0,0,0,2,0,0,0,0,0,0,0,0,0,0,0,0,0,0,0,0,0,0,0,0,0,0,0,0,0,0,0,0,0,0,0],"split_type":[0,0,0,0,0,0,0,0,0,0,0,0,0,0,0,0,0,0,0,0,0,0,0,0,0,0,0,0,0,0,0,0,0,0,0,0,0,0,0,0,0,0,0,0,0,0,0,0,0,0,0,0,0,0,0,0,0,0,0,0,0,0,0,0,0,0,0,0,0,0,0,0,0,0,0],"sum_hessian":[1.253E3,4.54E2,7.99E2,3.47E2,1.07E2,3.62E2,4.37E2,9.9E1,2.48E2,6E1,4.7E1,3.37E2,2.5E1,3.27E2,1.1E2,1.84E2,6.4E1,5.4E1,6E0,3.3E1,1.4E1,1.33E2,2.04E2,1.5E1,1E1,2.58E2,6.9E1,9.6E1,8.8E1,1.6E1,4.8E1,1E1,2.3E1,5E0,9E0,4E0,1.29E2,1.36E2,6.8E1,9E0,6E0,2E0,8E0,1.74E2,8.4E1,6E1,9E0,6.4E1,2.4E1,2.9E1,1.9E1,9E0,1E0,1.9E1,4E0,3E0,2E0,4E0,5E0,2E0,2E0,6.1E1,6.8E1,1.32E2,4E0,4E0,6.4E1,3E0,6E0,5E0,3E0,1.08E2,6.6E1,4.8E1,1.2E1],"tree_param":{"num_deleted":"0","num_feature":"3","num_nodes":"75","size_leaf_vector":"1"}},{"base_weights":[-8.416158E-4,-1.00883946E-1,6.5809526E-2,-1.3633934E-1,5.1547317E-3,-7.688665E-2,1.2953386E-1,-1.3811046E-1,-1.08658776E-1,-1.3499123E-2,5.4828513E-2,-1.116836E-1,1.3422496E-2,4.8378035E-2,1.3306445E-1,-1.2499418E-1,-1.4332803E-2,-1.2421377E-2,-6.9793905E-3,-5.5096544E-2,1.1620557E-1,-1.2413658E-2,-2.8217044E-2,-9.906399E-3,1.3361804E-2,1.2734549E-1,1.4278449E-2,-1.3207604E-2,-5.851324E-2,-1.253549E-1,1.0320318E-2,-1.7332204E-2,1.2353796E-2,-1.0555996E-1,1.6866738E-2,8.88747E-3,1.2855974E-1,-4.512205E-3,-8.364614E-3,-1.3172196E-2,-3.687815E-3,-2.3651512E-3,8.1285834E-5,-1.1870133E-2,-2.3319155E-3,1.3042146E-2,9.851375E-3],"categories":[],"categories_nodes":[],"categories_segments":[],"categories_sizes":[],"default_left":[0,0,0,0,0,0,0,0,0,0,0,0,0,0,0,0,0,0,0,0,0,0,0,0,0,0,0,0,0,0,0,0,0,0,0,0,0,0,0,0,0,0,0,0,0,0,0],"id":21,"left_children":[1,3,5,7,9,11,13,15,17,-1,19,21,-1,23,25,27,-1,-1,-1,29,31,-1,33,-1,-1,35,-1,-1,37,39,-1,41,-1,43,-1,-1,45,-1,-1,-1,-1,-1,-1,-1,-1,-1,-1],"loss_changes":[8.254875E0,1.8617263E0,6.7662206E0,3.1814575E-3,8.775988E-1,1.7045801E0,1.4083862E-1,5.694866E-3,7.653296E-3,0E0,6.338621E-1,2.0229983E-1,0E0,3.0229983E-1,9.1667175E-3,4.2177558E-2,0E0,0E0,0E0,3.9108083E-1,6.089014E-2,0E0,4.2895013E-1,0E0,0E0,3.475666E-3,0E0,0E0,2.6442856E-4,8.662432E-3,0E0,4.778821E-4,0E0,1.8847123E-2,0E0,0E0,4.324436E-3,0E0,0E0,0E0,0E0,0E0,0E0,0E0,0E0,0E0,0E0],"parents":[2147483647,0,0,1,1,2,2,3,3,4,4,5,5,6,6,7,7,8,8,10,10,11,11,13,13,14,14,15,15,19,19,20,20,22,22,25,25,28,28,29,29,31,31,33,33,36,36],"right_children":[2,4,6,8,10,12,14,16,18,-1,20,22,-1,24,26,28,-1,-1,-1,30,32,-1,34,-1,-1,36,-1,-1,38,40,-1,42,-1,44,-1,-1,46,-1,-1,-1,-1,-1,-1,-1,-1,-1,-1],"split_conditions":[3.744989E-1,6.445462E-1,3.457454E-1,6.2045527E-1,1.1870937E-1,8.842018E-1,3.5714024E-1,3.457454E-1,3.1784895E-1,-1.3499123E-2,6.9281805E-1,7.399957E-1,1.3422496E-2,6.5968186E-1,7.82242E-1,3.0718195E-1,-1.4332803E-2,-1.2421377E-2,-6.9793905E-3,3.4487048E-1,1.3061191E-1,-1.2413658E-2,2.1428187E-1,-9.906399E-3,1.3361804E-2,3.908878E-1,1.4278449E-2,-1.3207604E-2,2.6907998E-1,3.4031814E-1,1.0320318E-2,9.071456E-1,1.2353796E-2,8.601798E-1,1.6866738E-2,8.88747E-3,7.4191594E-1,-4.512205E-3,-8.364614E-3,-1.3172196E-2,-3.687815E-3,-2.3651512E-3,8.1285834E-5,-1.1870133E-2,-2.3319155E-3,1.3042146E-2,9.851375E-3],"split_indices":[0,1,1,1,0,0,1,1,0,0,1,0,0,0,0,1,0,0,0,0,0,0,1,0,0,0,0,0,0,0,0,1,0,0,0,0,0,0,0,0,0,0,0,0,0,0,0],"split_type":[0,0,0,0,0,0,0,0,0,0,0,0,0,0,0,0,0,0,0,0,0,0,0,0,0,0,0,0,0,0,0,0,0,0,0,0,0,0,0,0,0,0,0,0,0,0,0],"sum_hessian":[1.236E3,4.94E2,7.42E2,3.7E2,1.24E2,2.29E2,5.13E2,3.44E2,2.6E1,3.2E1,9.2E1,1.97E2,3.2E1,2.2E1,4.91E2,1.05E2,2.39E2,1.7E1,9E0,3.3E1,5.9E1,1.71E2,2.6E1,8E0,1.4E1,3.18E2,1.73E2,9.4E1,1.1E1,2.3E1,1E1,3E0,5.6E1,1.9E1,7E0,1.2E1,3.06E2,9E0,2E0,2.1E1,2E0,2E0,1E0,1.6E1,3E0,2.85E2,2.1E1],"tree_param":{"num_deleted":"0","num_feature":"3","num_nodes":"47","size_leaf_vector":"1"}},{"base_weights":[2.5201723E-4,-6.847791E-2,4.032168E-2,-8.365339E-2,-2.9701265E-2,5.1335483E-3,7.671277E-2,-1.0026092E-1,-6.440218E-2,-3.896295E-2,-1.6459305E-2,5.9805526E-3,4.2681834E-3,1.0863217E-2,6.628838E-2,-1.1619038E-2,-9.205194E-2,-1.0206714E-2,-2.7843084E-2,-7.896503E-2,-2.162316E-2,-1.0254504E-2,-3.345484E-2,2.3871695E-3,1.4417222E-2,-1.7397003E-3,7.70367E-2,-1.0911204E-2,-6.939234E-2,-5.1419525E-3,-1.2036572E-2,-1.1092465E-2,-4.3088286E-3,-1.4819715E-3,-3.3017767E-3,-1.5404748E-3,-5.5541075E-3,-2.3040252E-3,-4.7593047E-3,9.325179E-3,-8.5919915E-4,2.763137E-2,-3.9255628E-4,1.4725615E-3,-4.1385904E-2,6.426604E-2,1.054672E-2,-8.671526E-3,3.8888515E-3,-1.4725944E-3,-8.4730826E-4,-7.2529557E-4,4.6812245E-5,2.5320795E-4,7.2927116E-3,-7.461138E-4,2.2736874E-4,1.4497429E-3,3.9230236E-3,-8.962455E-3,-2.8852883E-3,9.90924E-3,2.0578918E-3],"categories":[],"categories_nodes":[],"categories_segments":[],"categories_sizes":[],"default_left":[0,0,0,0,0,0,0,0,0,0,0,0,0,0,0,0,0,0,0,0,0,0,0,0,0,0,0,0,0,0,0,0,0,0,0,0,0,0,0,0,0,0,0,0,0,0,0,0,0,0,0,0,0,0,0,0,0,0,0,0,0,0,0],"id":22,"left_children":[1,3,5,7,9,11,13,15,17,19,21,-1,23,-1,25,-1,27,-1,29,31,33,35,37,39,41,43,45,-1,47,-1,49,-1,-1,-1,-1,-1,51,-1,-1,53,55,57,-1,-1,59,61,-1,-1,-1,-1,-1,-1,-1,-1,-1,-1,-1,-1,-1,-1,-1,-1,-1],"loss_changes":[3.335083E0,2.5996614E-1,9.792154E-1,9.58519E-2,1.4934339E-2,1.819611E-2,1.17908955E-1,1.1534572E-2,2.0508462E-1,4.9620956E-2,5.3514466E-3,0E0,7.315418E-3,0E0,2.0925367E-1,0E0,3.7657678E-2,0E0,2.8448667E-2,2.0445809E-2,3.6193822E-3,9.069764E-4,9.648539E-4,7.3506203E-3,1.4651525E-2,2.672092E-2,8.2901955E-2,0E0,1.0278648E-1,0E0,3.3523608E-4,0E0,0E0,0E0,0E0,0E0,2.3870496E-4,0E0,0E0,4.4748988E-2,4.629301E-3,4.7631226E-3,0E0,0E0,4.6689827E-3,2.6117396E-1,0E0,0E0,0E0,0E0,0E0,0E0,0E0,0E0,0E0,0E0,0E0,0E0,0E0,0E0,0E0,0E0,0E0],"parents":[2147483647,0,0,1,1,2,2,3,3,4,4,5,5,6,6,7,7,8,8,9,9,10,10,12,12,14,14,16,16,18,18,19,19,20,20,21,21,22,22,23,23,24,24,25,25,26,26,28,28,30,30,36,36,39,39,40,40,41,41,44,44,45,45],"right_children":[2,4,6,8,10,12,14,16,18,20,22,-1,24,-1,26,-1,28,-1,30,32,34,36,38,40,42,44,46,-1,48,-1,50,-1,-1,-1,-1,-1,52,-1,-1,54,56,58,-1,-1,60,62,-1,-1,-1,-1,-1,-1,-1,-1,-1,-1,-1,-1,-1,-1,-1,-1,-1],"split_conditions":[4.1969645E-1,3.457454E-1,6.445462E-1,1E0,3.6348408E-1,4.228726E-1,3.530156E-1,2.6861864E-1,1.4285365E-1,3.530156E-1,4.0363577E-1,5.9805526E-3,6.124249E-1,1.0863217E-2,6.9281805E-1,-1.1619038E-2,3.530156E-1,-1.0206714E-2,2.1428187E-1,3.554538E-1,3.4742346E-1,3.7954476E-1,4.116661E-1,4.9196965E-1,6.4285976E-1,6.6060686E-1,9.071456E-1,-1.0911204E-2,3.1530225E-1,-5.1419525E-3,2.423957E-1,-1.1092465E-2,-4.3088286E-3,-1.4819715E-3,-3.3017767E-3,-1.5404748E-3,3.9560542E-1,-2.3040252E-3,-4.7593047E-3,4.7590894E-1,5.0803035E-1,6.2848556E-1,-3.9255628E-4,1.4725615E-3,6.6863716E-1,1E0,1.054672E-2,-8.671526E-3,3.8888515E-3,-1.4725944E-3,-8.4730826E-4,-7.2529557E-4,4.6812245E-5,2.5320795E-4,7.2927116E-3,-7.461138E-4,2.2736874E-4,1.4497429E-3,3.9230236E-3,-8.962455E-3,-2.8852883E-3,9.90924E-3,2.0578918E-3],"split_indices":[1,1,1,2,1,1,2,1,1,2,1,0,1,0,1,0,2,0,1,1,1,1,1,1,1,1,1,0,1,0,1,0,0,0,0,0,1,0,0,1,1,1,0,0,1,2,0,0,0,0,0,0,0,0,0,0,0,0,0,0,0,0,0],"split_type":[0,0,0,0,0,0,0,0,0,0,0,0,0,0,0,0,0,0,0,0,0,0,0,0,0,0,0,0,0,0,0,0,0,0,0,0,0,0,0,0,0,0,0,0,0,0,0,0,0,0,0,0,0,0,0,0,0,0,0,0,0,0,0],"sum_hessian":[1.209E3,4.45E2,7.64E2,3.19E2,1.26E2,3.89E2,3.75E2,1.69E2,1.5E2,7.3E1,5.3E1,5E0,3.84E2,9E1,2.85E2,5.3E1,1.16E2,7.3E1,7.7E1,2.1E1,5.2E1,4E1,1.3E1,3.25E2,5.9E1,3.9E1,2.46E2,6.4E1,5.2E1,3E1,4.7E1,1E1,1.1E1,3.4E1,1.8E1,1.8E1,2.2E1,9E0,4E0,1.03E2,2.22E2,3.4E1,2.5E1,2.8E1,1.1E1,1.72E2,7.4E1,4.5E1,7E0,2.5E1,2.2E1,1.7E1,5E0,9.4E1,9E0,7.1E1,1.51E2,1.7E1,1.7E1,1E0,1E1,9.5E1,7.7E1],"tree_param":{"num_deleted":"0","num_feature":"3","num_nodes":"63","size_leaf_vector":"1"}},{"base_weights":[-1.5588483E-3,-3.503749E-2,7.3684976E-2,-7.535782E-2,-7.77681E-3,3.3023976E-2,7.981317E-2,-9.0791464E-2,-5.6867864E-2,-2.899383E-2,-1.890185E-3,8.775643E-3,-1.1479381E-4,9.801597E-3,7.414174E-2,-1.0497452E-2,-8.365615E-2,-9.337933E-3,-2.1430833E-2,-5.1555883E-2,-3.805776E-3,-1.0123757E-2,4.274112E-4,-5.1939838E-2,7.996699E-2,-9.7734975E-3,-6.391072E-2,-4.814924E-3,-3.7222404E-3,-7.724561E-2,-3.532615E-2,-5.0949282E-5,-8.577211E-4,-4.4808597E-3,-2.1644203E-2,-9.1819523E-4,1.3822337E-2,2.449909E-3,-6.1116023E-3,9.527038E-3,6.890844E-2,-7.934418E-3,4.053717E-3,-4.8411774E-4,-2.2617214E-4,-9.529572E-3,-5.741894E-3,-2.8641566E-3,-4.597792E-3,9.6241117E-4,-7.776436E-4,-4.9382257E-3,-1.0573812E-3,2.3969251E-3,-1.8037534E-4,3.4216598E-3,1.2876427E-4,1.6459402E-3,9.339489E-3],"categories":[],"categories_nodes":[],"categories_segments":[],"categories_sizes":[],"default_left":[0,0,0,0,0,0,0,0,0,0,0,0,0,0,0,0,0,0,0,0,0,0,0,0,0,0,0,0,0,0,0,0,0,0,0,0,0,0,0,0,0,0,0,0,0,0,0,0,0,0,0,0,0,0,0,0,0,0,0],"id":23,"left_children":[1,3,5,7,9,11,13,15,17,19,21,-1,-1,-1,23,-1,25,-1,27,29,31,33,35,37,39,-1,41,-1,43,45,47,-1,-1,49,51,53,55,-1,-1,-1,57,-1,-1,-1,-1,-1,-1,-1,-1,-1,-1,-1,-1,-1,-1,-1,-1,-1,-1],"loss_changes":[3.1413321E0,9.4798875E-1,9.304857E-2,9.414482E-2,6.439186E-2,9.7357E-2,2.7110338E-2,1.0243893E-2,2.0630991E-1,6.345274E-2,7.732575E-3,0E0,0E0,0E0,1.9364333E-1,0E0,2.9892743E-2,0E0,3.9091848E-2,2.1870524E-2,8.449419E-4,5.68879E-3,5.7263942E-3,9.914298E-3,3.5235643E-2,0E0,9.509991E-2,0E0,7.23963E-5,2.4014413E-3,1.388818E-3,0E0,0E0,2.9103654E-3,8.3829025E-3,6.412587E-3,7.3693795E-3,0E0,0E0,0E0,1.8725353E-1,0E0,0E0,0E0,0E0,0E0,0E0,0E0,0E0,0E0,0E0,0E0,0E0,0E0,0E0,0E0,0E0,0E0,0E0],"parents":[2147483647,0,0,1,1,2,2,3,3,4,4,5,5,6,6,7,7,8,8,9,9,10,10,14,14,16,16,18,18,19,19,20,20,21,21,22,22,23,23,24,24,26,26,28,28,29,29,30,30,33,33,34,34,35,35,36,36,40,40],"right_children":[2,4,6,8,10,12,14,16,18,20,22,-1,-1,-1,24,-1,26,-1,28,30,32,34,36,38,40,-1,42,-1,44,46,48,-1,-1,50,52,54,56,-1,-1,-1,58,-1,-1,-1,-1,-1,-1,-1,-1,-1,-1,-1,-1,-1,-1,-1,-1,-1,-1],"split_conditions":[6.445462E-1,3.457454E-1,6.6060686E-1,1E0,4.0363577E-1,6.542546E-1,3.530156E-1,2.6861864E-1,1.4285365E-1,3.530156E-1,4.3575716E-1,8.775643E-3,-1.1479381E-4,9.801597E-3,6.9281805E-1,-1.0497452E-2,3.530156E-1,-9.337933E-3,2.1428187E-1,3.5714024E-1,3.4742346E-1,4.277268E-1,6.365159E-1,6.7666745E-1,1E0,-9.7734975E-3,3.1530225E-1,-4.814924E-3,2.423957E-1,3.554538E-1,3.875751E-1,-5.0949282E-5,-8.577211E-4,4.1969645E-1,4.2857003E-1,4.437875E-1,6.4285976E-1,2.449909E-3,-6.1116023E-3,9.527038E-3,8.571463E-1,-7.934418E-3,4.053717E-3,-4.8411774E-4,-2.2617214E-4,-9.529572E-3,-5.741894E-3,-2.8641566E-3,-4.597792E-3,9.6241117E-4,-7.776436E-4,-4.9382257E-3,-1.0573812E-3,2.3969251E-3,-1.8037534E-4,3.4216598E-3,1.2876427E-4,1.6459402E-3,9.339489E-3],"split_indices":[1,1,1,2,1,1,2,1,1,2,1,0,0,0,1,0,2,0,1,1,1,1,1,1,2,0,1,0,1,1,1,0,0,1,1,1,1,0,0,0,1,0,0,0,0,0,0,0,0,0,0,0,0,0,0,0,0,0,0],"split_type":[0,0,0,0,0,0,0,0,0,0,0,0,0,0,0,0,0,0,0,0,0,0,0,0,0,0,0,0,0,0,0,0,0,0,0,0,0,0,0,0,0,0,0,0,0,0,0,0,0,0,0,0,0,0,0,0,0,0,0],"sum_hessian":[1.245E3,8.62E2,3.83E2,3.47E2,5.15E2,5.1E1,3.32E2,1.87E2,1.6E2,1.11E2,4.04E2,1.9E1,3.2E1,7.5E1,2.57E2,5.8E1,1.29E2,7.8E1,8.2E1,5.8E1,5.3E1,8.8E1,3.16E2,1.1E1,2.46E2,7.3E1,5.6E1,3.2E1,5E1,2.1E1,3.7E1,3.2E1,2.1E1,6E1,2.8E1,2.88E2,2.8E1,1E0,1E1,1E2,1.46E2,4.9E1,7E0,2.7E1,2.3E1,9E0,1.2E1,2.5E1,1.2E1,1.1E1,4.9E1,7E0,2.1E1,9E0,2.79E2,1E1,1.8E1,4.7E1,9.9E1],"tree_param":{"num_deleted":"0","num_feature":"3","num_nodes":"59","size_leaf_vector":"1"}},{"base_weights":[1.03419225E-4,-6.1586343E-2,8.608779E-2,-1.0043212E-1,-8.747808E-3,4.6886496E-2,1.0020067E-1,-1.293778E-2,-9.134411E-2,-4.559942E-2,-4.1430537E-3,7.2857074E-2,1.1477611E-2,9.100025E-2,1.2406003E-2,-1.1005911E-1,-3.0853143E-2,-7.769725E-3,-4.63329E-3,-1.1308746E-2,-9.699584E-4,1.9540885E-2,1.0987609E-2,3.4497656E-2,-2.7576159E-3,1.0998116E-1,4.264774E-2,-1.2393105E-2,-8.812815E-2,-7.942441E-2,1.4667322E-4,1.2095144E-2,-2.2873618E-2,-7.029523E-3,-3.2202754E-2,-7.0902193E-3,5.555588E-3,6.1218464E-3,3.8273666E-2,2.5023991E-2,7.3241564E-3,9.820526E-3,-3.0828632E-2,9.4063774E-2,1.2747134E-2,1.5583195E-2,9.2353925E-2,-1.1988214E-2,-1.2156385E-3,-8.816497E-3,-4.923367E-3,2.4665792E-3,-1.174583E-3,-1.10055196E-4,3.8853388E-3,-1.2777634E-3,-4.677275E-3,-1.951045E-3,-1.02766884E-4,-4.080489E-3,-8.55794E-4,-2.2088874E-3,-3.0134857E-4,2.7737361E-3,-1.3786942E-5,2.33728E-3,-5.3755767E-3,5.4679685E-3,1.9134189E-3,3.10041E-3,-4.429904E-3,-4.590429E-3,1.3729337E-3,9.7468187E-4,-3.9918404E-3,1.2736089E-2,7.2496274E-4,2.5174592E-3,-1.5013397E-4,1.0207807E-2,6.0483175E-3],"categories":[],"categories_nodes":[],"categories_segments":[],"categories_sizes":[],"default_left":[0,0,0,0,0,0,0,0,0,0,0,0,0,0,0,0,0,0,0,0,0,0,0,0,0,0,0,0,0,0,0,0,0,0,0,0,0,0,0,0,0,0,0,0,0,0,0,0,0,0,0,0,0,0,0,0,0,0,0,0,0,0,0,0,0,0,0,0,0,0,0,0,0,0,0,0,0,0,0,0,0],"id":24,"left_children":[1,3,5,7,9,11,13,-1,15,17,19,21,23,25,-1,27,29,-1,31,33,35,37,-1,39,41,43,45,-1,47,49,51,53,55,57,59,61,63,65,67,69,-1,71,73,75,-1,77,79,-1,-1,-1,-1,-1,-1,-1,-1,-1,-1,-1,-1,-1,-1,-1,-1,-1,-1,-1,-1,-1,-1,-1,-1,-1,-1,-1,-1,-1,-1,-1,-1,-1,-1],"loss_changes":[6.5773983E0,1.4810653E0,2.818818E-1,9.7614765E-2,5.1906705E-2,1.2698668E-1,7.2126865E-2,0E0,3.588724E-1,4.4347413E-2,6.2190862E-3,1.5574998E-1,1.9756865E-2,2.504506E-1,0E0,6.330919E-2,1.15950584E-1,0E0,5.1587736E-3,7.2840815E-3,7.667557E-3,8.312476E-3,0E0,6.609278E-3,1.3719839E-2,4.3410778E-2,1.0618284E-1,0E0,2.3495853E-1,3.5758317E-3,1.4286217E-2,3.2206029E-3,1.3326365E-3,5.2984683E-3,2.498337E-3,5.986841E-3,1.1748884E-2,2.2948284E-2,3.3497866E-3,9.664638E-3,0E0,6.5113157E-3,4.814937E-3,3.1126797E-1,0E0,8.722616E-3,2.5036335E-3,0E0,0E0,0E0,0E0,0E0,0E0,0E0,0E0,0E0,0E0,0E0,0E0,0E0,0E0,0E0,0E0,0E0,0E0,0E0,0E0,0E0,0E0,0E0,0E0,0E0,0E0,0E0,0E0,0E0,0E0,0E0,0E0,0E0,0E0],"parents":[2147483647,0,0,1,1,2,2,3,3,4,4,5,5,6,6,8,8,9,9,10,10,11,11,12,12,13,13,15,15,16,16,18,18,19,19,20,20,21,21,23,23,24,24,25,25,26,26,28,28,29,29,30,30,31,31,32,32,33,33,34,34,35,35,36,36,37,37,38,38,39,39,41,41,42,42,43,43,45,45,46,46],"right_children":[2,4,6,8,10,12,14,-1,16,18,20,22,24,26,-1,28,30,-1,32,34,36,38,-1,40,42,44,46,-1,48,50,52,54,56,58,60,62,64,66,68,70,-1,72,74,76,-1,78,80,-1,-1,-1,-1,-1,-1,-1,-1,-1,-1,-1,-1,-1,-1,-1,-1,-1,-1,-1,-1,-1,-1,-1,-1,-1,-1,-1,-1,-1,-1,-1,-1,-1,-1],"split_conditions":[6.036637E-1,3.2100257E-1,7.1105385E-1,8.800658E-2,3.4487048E-1,3.530156E-1,9.288728E-1,-1.293778E-2,1E0,3.530156E-1,4.2295423E-1,6.5968186E-1,6.558907E-1,1E0,1.2406003E-2,2.6777184E-1,1.5736747E-1,-7.769725E-3,3.295866E-1,4.081679E-1,3.530156E-1,6.407443E-1,1.0987609E-2,6.4823544E-1,1E0,7.6044744E-1,8.7240314E-1,-1.2393105E-2,3.530156E-1,1.3061191E-1,1.9712059E-1,1E0,1E0,3.618593E-1,4.1707024E-1,4.5768416E-1,4.5768416E-1,6.331655E-1,6.4823544E-1,6.456623E-1,7.3241564E-3,6.5968186E-1,6.6719043E-1,3.530156E-1,1.2747134E-2,8.207018E-1,9.1199344E-1,-1.1988214E-2,-1.2156385E-3,-8.816497E-3,-4.923367E-3,2.4665792E-3,-1.174583E-3,-1.10055196E-4,3.8853388E-3,-1.2777634E-3,-4.677275E-3,-1.951045E-3,-1.02766884E-4,-4.080489E-3,-8.55794E-4,-2.2088874E-3,-3.0134857E-4,2.7737361E-3,-1.3786942E-5,2.33728E-3,-5.3755767E-3,5.4679685E-3,1.9134189E-3,3.10041E-3,-4.429904E-3,-4.590429E-3,1.3729337E-3,9.7468187E-4,-3.9918404E-3,1.2736089E-2,7.2496274E-4,2.5174592E-3,-1.5013397E-4,1.0207807E-2,6.0483175E-3],"split_indices":[0,0,0,0,0,2,0,0,2,2,0,0,0,2,0,0,0,0,0,0,2,0,0,0,2,0,0,0,2,0,0,2,2,0,0,0,0,0,0,0,0,0,0,2,0,0,0,0,0,0,0,0,0,0,0,0,0,0,0,0,0,0,0,0,0,0,0,0,0,0,0,0,0,0,0,0,0,0,0,0,0],"split_type":[0,0,0,0,0,0,0,0,0,0,0,0,0,0,0,0,0,0,0,0,0,0,0,0,0,0,0,0,0,0,0,0,0,0,0,0,0,0,0,0,0,0,0,0,0,0,0,0,0,0,0,0,0,0,0,0,0,0,0,0,0,0,0,0,0,0,0,0,0,0,0,0,0,0,0,0,0,0,0,0,0],"sum_hessian":[1.238E3,7.21E2,5.17E2,4.15E2,3.06E2,1.38E2,3.79E2,9.6E1,3.19E2,3.3E1,2.73E2,7.9E1,5.9E1,2.77E2,1.02E2,2.43E2,7.6E1,1.8E1,1.5E1,8.3E1,1.9E2,3.3E1,4.6E1,2.2E1,3.7E1,1.98E2,7.9E1,1.46E2,9.7E1,2.9E1,4.7E1,8E0,7E0,7E1,1.3E1,9.8E1,9.2E1,2E1,1.3E1,1.9E1,3E0,2.6E1,1.1E1,1.07E2,9.1E1,5.2E1,2.7E1,6.8E1,2.9E1,2.1E1,8E0,1.5E1,3.2E1,6E0,2E0,6E0,1E0,2.2E1,4.8E1,9E0,4E0,2E1,7.8E1,1.8E1,7.4E1,1.6E1,4E0,6E0,7E0,1.8E1,1E0,1E0,2.5E1,2E0,9E0,7.7E1,3E1,3.3E1,1.9E1,1.9E1,8E0],"tree_param":{"num_deleted":"0","num_feature":"3","num_nodes":"81","size_leaf_vector":"1"}},{"base_weights":[-3.1691405E-3,-3.413627E-2,6.38052E-2,-6.535034E-2,-7.3941923E-3,8.871107E-3,5.5971462E-2,-8.972528E-3,-5.754388E-2,-1.28203025E-2,-3.7890477E-3,-7.529636E-3,6.690688E-2,-6.6570245E-2,-2.4881696E-3,-1.1921365E-2,-4.297757E-3,-1.0817202E-3,-1.1819532E-2,8.968577E-4,-4.5880448E-2,8.1608206E-2,5.6713548E-2,-8.726629E-2,-5.325623E-2,3.9641126E-3,-1.1529959E-3,-1.3773154E-2,-3.7503352E-3,5.534065E-3,-5.1332116E-3,-2.1926635E-3,-5.849875E-3,-8.017172E-3,-3.70756E-2,6.764113E-2,9.354672E-3,7.725521E-3,8.067253E-2,-9.606771E-3,-7.554664E-3,-8.473755E-3,-2.2271152E-3,-2.0051699E-3,-1.2270745E-3,1.7766822E-3,-1.1881922E-3,1.810536E-3,3.5084548E-4,-2.8663639E-3,-2.0985541E-4,-2.8869693E-4,-8.6872606E-4,2.291164E-3,-4.3983846E-3,8.799984E-3,-2.0419864E-5,1.1954012E-3,4.8005572E-4,7.2359764E-3,8.853564E-3],"categories":[],"categories_nodes":[],"categories_segments":[],"categories_sizes":[],"default_left":[0,0,0,0,0,0,0,0,0,0,0,0,0,0,0,0,0,0,0,0,0,0,0,0,0,0,0,0,0,0,0,0,0,0,0,0,0,0,0,0,0,0,0,0,0,0,0,0,0,0,0,0,0,0,0,0,0,0,0,0,0],"id":25,"left_children":[1,3,5,7,9,-1,11,-1,13,15,17,19,21,23,25,27,-1,29,31,-1,33,35,37,39,41,-1,-1,43,45,47,49,-1,51,-1,53,55,-1,57,59,-1,-1,-1,-1,-1,-1,-1,-1,-1,-1,-1,-1,-1,-1,-1,-1,-1,-1,-1,-1,-1,-1],"loss_changes":[2.623718E0,7.215575E-1,7.307708E-2,7.07593E-2,9.086836E-3,0E0,2.136879E-1,0E0,1.514051E-1,4.5300145E-3,6.1182193E-3,2.9516596E-2,3.4633875E-2,6.754577E-2,1.7217726E-2,2.7021915E-3,0E0,5.7108123E-3,4.1555837E-3,0E0,1.254594E-3,1.11807585E-2,1.8482184E-1,3.1605363E-3,1.5613586E-1,0E0,0E0,1.150025E-3,6.335006E-3,1.9991056E-3,9.365545E-3,0E0,3.616378E-4,0E0,6.3950233E-3,7.184261E-2,0E0,5.9812795E-4,5.222559E-4,0E0,0E0,0E0,0E0,0E0,0E0,0E0,0E0,0E0,0E0,0E0,0E0,0E0,0E0,0E0,0E0,0E0,0E0,0E0,0E0,0E0,0E0],"parents":[2147483647,0,0,1,1,2,2,3,3,4,4,6,6,8,8,9,9,10,10,11,11,12,12,13,13,14,14,15,15,17,17,18,18,20,20,21,21,22,22,23,23,24,24,27,27,28,28,29,29,30,30,32,32,34,34,35,35,37,37,38,38],"right_children":[2,4,6,8,10,-1,12,-1,14,16,18,20,22,24,26,28,-1,30,32,-1,34,36,38,40,42,-1,-1,44,46,48,50,-1,52,-1,54,56,-1,58,60,-1,-1,-1,-1,-1,-1,-1,-1,-1,-1,-1,-1,-1,-1,-1,-1,-1,-1,-1,-1,-1,-1],"split_conditions":[6.445462E-1,3.5714024E-1,3.530156E-1,3.530156E-1,4.839393E-1,8.871107E-3,6.9281805E-1,-8.972528E-3,3.1530225E-1,4.7590894E-1,1E0,6.6060686E-1,1E0,1E0,3.3939314E-1,4.3575716E-1,-4.297757E-3,5.321214E-1,5.0803035E-1,8.968577E-4,6.6863716E-1,7.3909396E-1,8.571463E-1,2.6861864E-1,1.4285365E-1,3.9641126E-3,-1.1529959E-3,3.715144E-1,4.437875E-1,4.9196965E-1,5.562125E-1,-2.1926635E-3,5.722732E-1,-8.017172E-3,6.7666745E-1,7.3138136E-1,9.354672E-3,7.1595603E-1,9.4285905E-1,-9.606771E-3,-7.554664E-3,-8.473755E-3,-2.2271152E-3,-2.0051699E-3,-1.2270745E-3,1.7766822E-3,-1.1881922E-3,1.810536E-3,3.5084548E-4,-2.8663639E-3,-2.0985541E-4,-2.8869693E-4,-8.6872606E-4,2.291164E-3,-4.3983846E-3,8.799984E-3,-2.0419864E-5,1.1954012E-3,4.8005572E-4,7.2359764E-3,8.853564E-3],"split_indices":[1,1,2,2,1,0,1,0,1,1,2,1,2,2,1,1,0,1,1,0,1,1,1,1,1,0,0,1,1,1,1,0,1,0,1,1,0,1,1,0,0,0,0,0,0,0,0,0,0,0,0,0,0,0,0,0,0,0,0,0,0],"split_type":[0,0,0,0,0,0,0,0,0,0,0,0,0,0,0,0,0,0,0,0,0,0,0,0,0,0,0,0,0,0,0,0,0,0,0,0,0,0,0,0,0,0,0,0,0,0,0,0,0,0,0,0,0,0,0,0,0,0,0,0,0],"sum_hessian":[1.263E3,8.64E2,3.99E2,3.98E2,4.66E2,9.3E1,3.06E2,9.4E1,3.04E2,1.85E2,2.81E2,4.5E1,2.61E2,2.61E2,4.3E1,1.81E2,4E0,2.11E2,7E1,3.2E1,1.3E1,1.04E2,1.57E2,1E2,1.61E2,7E0,3.6E1,1.47E2,3.4E1,8E1,1.31E2,2.5E1,4.5E1,1E0,1.2E1,5.1E1,5.3E1,5.2E1,1.05E2,5.3E1,4.7E1,7.9E1,8.2E1,2.6E1,1.21E2,9E0,2.5E1,1E1,7E1,1.4E1,1.17E2,2.3E1,2.2E1,1E0,1.1E1,3.9E1,1.2E1,2E1,3.2E1,5.6E1,4.9E1],"tree_param":{"num_deleted":"0","num_feature":"3","num_nodes":"61","size_leaf_vector":"1"}},{"base_weights":[6.472757E-4,-8.9184806E-2,4.9500495E-2,-9.6689686E-2,-6.222324E-2,2.2572186E-3,8.396755E-2,-1.0909716E-1,-8.225674E-2,-9.655693E-2,-1.3810806E-2,-5.0463304E-3,5.413447E-3,6.142338E-2,9.474421E-2,-1.1946655E-1,-9.631799E-2,-1.1176343E-2,-1.0192783E-2,-1.0217181E-2,-7.241428E-3,-2.2621872E-2,3.2217496E-3,-8.243744E-4,-2.5859267E-2,1.7412752E-2,2.8363226E-3,1.0077759E-1,3.9403536E-3,1.10482566E-1,8.1158645E-2,-1.13250045E-2,-1.5973859E-1,-1.1540181E-2,-4.068692E-2,-3.714572E-2,1.1148124E-2,-1.5318375E-2,-4.9647517E-3,2.8020847E-3,-7.566286E-3,-1.18975695E-2,-6.8260394E-3,1.0139912E-2,2.5300255E-2,-1.6260374E-4,1.2423383E-2,2.950997E-2,1.0557393E-2,4.6470016E-2,-2.317422E-3,9.23175E-2,1.1765737E-1,1.552029E-2,1.0728465E-1,-1.8159857E-2,-8.1549E-3,-7.5392807E-3,4.0279367E-4,-5.098148E-3,-1.9933076E-3,7.15824E-3,6.1123945E-5,-1.9630746E-3,4.4841642E-4,-2.7339475E-4,2.569803E-3,-2.4349398E-3,-4.799666E-4,-1.9195809E-3,1.1146978E-3,1.8432395E-3,4.488429E-4,2.832487E-3,-2.7264903E-5,1.2368208E-4,-1.9598345E-3,2.0528634E-3,-1.3252633E-4,1.03688E-3,3.509268E-3,6.32015E-3,2.3790828E-3,-5.116476E-3,1.4846315E-4,1.1489732E-2,2.2529862E-3,1.49810435E-2,1.1217666E-2,5.030397E-4,3.6841296E-3,8.465263E-3,1.1325251E-2],"categories":[],"categories_nodes":[],"categories_segments":[],"categories_sizes":[],"default_left":[0,0,0,0,0,0,0,0,0,0,0,0,0,0,0,0,0,0,0,0,0,0,0,0,0,0,0,0,0,0,0,0,0,0,0,0,0,0,0,0,0,0,0,0,0,0,0,0,0,0,0,0,0,0,0,0,0,0,0,0,0,0,0,0,0,0,0,0,0,0,0,0,0,0,0,0,0,0,0,0,0,0,0,0,0,0,0,0,0,0,0,0,0],"id":26,"left_children":[1,3,5,7,9,11,13,15,17,19,21,23,25,27,29,31,33,-1,35,-1,-1,37,-1,39,41,43,45,47,49,51,53,-1,55,-1,57,59,61,63,-1,65,67,69,-1,71,73,75,77,79,-1,81,83,85,87,89,91,-1,-1,-1,-1,-1,-1,-1,-1,-1,-1,-1,-1,-1,-1,-1,-1,-1,-1,-1,-1,-1,-1,-1,-1,-1,-1,-1,-1,-1,-1,-1,-1,-1,-1,-1,-1,-1,-1],"loss_changes":[5.3321586E0,8.058643E-2,1.2813112E0,5.0658464E-2,1.5823549E-1,7.7035236E-3,1.04723215E-1,1.1815548E-2,3.3482707E-1,1.925826E-4,1.7356712E-2,8.853683E-3,7.155834E-3,3.3893275E-1,5.646062E-2,5.19228E-3,8.4483504E-2,0E0,2.7448513E-2,0E0,0E0,6.147841E-3,0E0,2.099389E-3,9.251727E-3,2.095404E-3,5.550941E-3,2.7306795E-2,1.660844E-2,7.254362E-3,2.8643262E-1,0E0,2.2830367E-3,0E0,3.5996646E-2,3.98493E-3,1.7149549E-2,2.5645066E-3,0E0,7.1684076E-3,1.2761058E-3,2.5685593E-3,0E0,9.951587E-4,1.4773374E-3,4.04967E-3,5.1532723E-3,3.8414868E-4,0E0,1.5320368E-3,1.0290572E-2,6.6746235E-2,1.1193752E-4,1.07737705E-2,6.6206455E-3,0E0,0E0,0E0,0E0,0E0,0E0,0E0,0E0,0E0,0E0,0E0,0E0,0E0,0E0,0E0,0E0,0E0,0E0,0E0,0E0,0E0,0E0,0E0,0E0,0E0,0E0,0E0,0E0,0E0,0E0,0E0,0E0,0E0,0E0,0E0,0E0,0E0,0E0],"parents":[2147483647,0,0,1,1,2,2,3,3,4,4,5,5,6,6,7,7,8,8,9,9,10,10,11,11,12,12,13,13,14,14,15,15,16,16,18,18,21,21,23,23,24,24,25,25,26,26,27,27,28,28,29,29,30,30,32,32,34,34,35,35,36,36,37,37,39,39,40,40,41,41,43,43,44,44,45,45,46,46,47,47,49,49,50,50,51,51,52,52,53,53,54,54],"right_children":[2,4,6,8,10,12,14,16,18,20,22,24,26,28,30,32,34,-1,36,-1,-1,38,-1,40,42,44,46,48,50,52,54,-1,56,-1,58,60,62,64,-1,66,68,70,-1,72,74,76,78,80,-1,82,84,86,88,90,92,-1,-1,-1,-1,-1,-1,-1,-1,-1,-1,-1,-1,-1,-1,-1,-1,-1,-1,-1,-1,-1,-1,-1,-1,-1,-1,-1,-1,-1,-1,-1,-1,-1,-1,-1,-1,-1,-1],"split_conditions":[3.4487048E-1,2.828273E-1,6.4823544E-1,1E0,3.530156E-1,4.353807E-1,7.3244584E-1,2.4364543E-1,1.3061191E-1,3.295866E-1,3.33805E-1,1E0,4.7139663E-1,3.530156E-1,1E0,2.3148859E-1,3.530156E-1,-1.1176343E-2,1.8279415E-1,-1.0217181E-2,-7.241428E-3,3.2344124E-1,3.2217496E-3,4.0512648E-1,4.081679E-1,3.530156E-1,6.091122E-1,6.558907E-1,6.634485E-1,7.507639E-1,8.842018E-1,-1.13250045E-2,2.3955257E-1,-1.1540181E-2,2.5979048E-1,1.5736747E-1,1.9712059E-1,3.139935E-1,-4.9647517E-3,3.908878E-1,4.081679E-1,3.8790655E-1,-6.8260394E-3,4.5107603E-1,4.6749163E-1,6.006519E-1,6.331655E-1,6.528402E-1,1.0557393E-2,6.558907E-1,6.7090756E-1,3.530156E-1,7.705024E-1,8.4750646E-1,9.363761E-1,-1.8159857E-2,-8.1549E-3,-7.5392807E-3,4.0279367E-4,-5.098148E-3,-1.9933076E-3,7.15824E-3,6.1123945E-5,-1.9630746E-3,4.4841642E-4,-2.7339475E-4,2.569803E-3,-2.4349398E-3,-4.799666E-4,-1.9195809E-3,1.1146978E-3,1.8432395E-3,4.488429E-4,2.832487E-3,-2.7264903E-5,1.2368208E-4,-1.9598345E-3,2.0528634E-3,-1.3252633E-4,1.03688E-3,3.509268E-3,6.32015E-3,2.3790828E-3,-5.116476E-3,1.4846315E-4,1.1489732E-2,2.2529862E-3,1.49810435E-2,1.1217666E-2,5.030397E-4,3.6841296E-3,8.465263E-3,1.1325251E-2],"split_indices":[0,0,0,2,2,0,0,0,0,0,0,2,0,2,2,0,2,0,0,0,0,0,0,0,0,2,0,0,0,0,0,0,0,0,0,0,0,0,0,0,0,0,0,0,0,0,0,0,0,0,0,2,0,0,0,0,0,0,0,0,0,0,0,0,0,0,0,0,0,0,0,0,0,0,0,0,0,0,0,0,0,0,0,0,0,0,0,0,0,0,0,0,0],"split_type":[0,0,0,0,0,0,0,0,0,0,0,0,0,0,0,0,0,0,0,0,0,0,0,0,0,0,0,0,0,0,0,0,0,0,0,0,0,0,0,0,0,0,0,0,0,0,0,0,0,0,0,0,0,0,0,0,0,0,0,0,0,0,0,0,0,0,0,0,0,0,0,0,0,0,0,0,0,0,0,0,0,0,0,0,0,0,0,0,0,0,0,0,0],"sum_hessian":[1.213E3,4.27E2,7.86E2,3.32E2,9.5E1,3.32E2,4.54E2,1.75E2,1.57E2,5.5E1,4E1,1E2,2.32E2,1.49E2,3.05E2,9.2E1,8.3E1,1.11E2,4.6E1,4.2E1,1.3E1,3.4E1,6E0,8.4E1,1.6E1,4E1,1.92E2,8.8E1,6.1E1,1.38E2,1.67E2,8.3E1,9E0,6.1E1,2.2E1,2E1,2.6E1,2.8E1,6E0,5.5E1,2.9E1,1.3E1,3E0,2.2E1,1.8E1,1.47E2,4.5E1,6E0,8.2E1,7E0,5.4E1,4.3E1,9.5E1,4.8E1,1.19E2,6E0,3E0,1.2E1,1E1,1E1,1E1,3E0,2.3E1,2.3E1,5E0,4.5E1,1E1,3E0,2.6E1,1E1,3E0,8E0,1.4E1,1.6E1,2E0,1.38E2,9E0,2.8E1,1.7E1,2E0,4E0,3E0,4E0,3E0,5.1E1,3.2E1,1.1E1,1E1,8.5E1,3.3E1,1.5E1,2.8E1,9.1E1],"tree_param":{"num_deleted":"0","num_feature":"3","num_nodes":"93","size_leaf_vector":"1"}},{"base_weights":[1.2498503E-3,-7.1489066E-2,4.9388483E-2,-9.6893385E-2,-3.2841912E-3,-4.5292202E-2,9.1054894E-2,-7.604749E-2,-9.9660985E-2,-1.0911742E-1,2.8696444E-2,-7.5035E-2,1.08527206E-1,3.157458E-2,9.408472E-2,5.421493E-3,-9.821266E-2,-1.0673291E-2,-9.423197E-2,-9.397442E-3,-1.3737457E-2,-3.722121E-2,6.608015E-2,-8.27949E-2,-2.9595727E-2,1.4737646E-2,8.938902E-3,-7.3956586E-3,9.800213E-3,1.0144157E-1,8.575748E-2,6.2521542E-3,-6.5406654E-3,-7.875248E-3,-1.5891174E-2,-9.607762E-2,-5.158707E-3,-1.074053E-1,7.038125E-2,-1.7272599E-2,7.019293E-2,-8.382269E-3,-5.201815E-3,-8.077714E-2,1.5011136E-2,8.2586706E-2,1.0391272E-2,8.1811115E-2,9.7908564E-2,-1.0607921E-4,-1.897344E-3,-7.8047E-3,-9.888559E-3,-7.625956E-3,-1.4338337E-2,7.3451675E-3,1.2162417E-3,-2.1168462E-3,-2.7925076E-4,3.504791E-3,8.50341E-3,-9.08585E-3,-7.6557323E-4,5.978349E-3,9.334391E-3,8.394756E-3,3.0142863E-4,1.3519825E-2,7.5508216E-3],"categories":[],"categories_nodes":[],"categories_segments":[],"categories_sizes":[],"default_left":[0,0,0,0,0,0,0,0,0,0,0,0,0,0,0,0,0,0,0,0,0,0,0,0,0,0,0,0,0,0,0,0,0,0,0,0,0,0,0,0,0,0,0,0,0,0,0,0,0,0,0,0,0,0,0,0,0,0,0,0,0,0,0,0,0,0,0,0,0],"id":27,"left_children":[1,3,5,7,9,11,13,15,17,19,21,23,25,27,29,31,33,-1,35,-1,-1,37,39,41,43,-1,-1,-1,-1,45,47,-1,49,-1,-1,51,-1,53,55,57,59,-1,-1,61,-1,63,-1,65,67,-1,-1,-1,-1,-1,-1,-1,-1,-1,-1,-1,-1,-1,-1,-1,-1,-1,-1,-1,-1],"loss_changes":[4.4049816E0,8.67764E-1,2.9904923E0,1.3478756E-2,4.668234E-1,1.0695478E0,9.1822624E-2,8.540386E-2,2.1898746E-3,7.830262E-4,2.6366967E-1,6.6307425E-2,1.50793195E-2,1.9652268E-1,2.1931648E-2,7.92237E-3,3.1190246E-2,0E0,9.919286E-3,0E0,0E0,3.0208656E-1,2.4523646E-2,8.906126E-4,2.8805545E-1,0E0,0E0,0E0,0E0,3.5324097E-3,3.5465956E-3,0E0,6.611734E-4,0E0,0E0,1.3955832E-3,0E0,1.5959173E-2,1.9667596E-3,1.6653666E-4,3.0923277E-2,0E0,0E0,1.6996339E-2,0E0,3.0050427E-3,0E0,3.1395793E-2,3.4897685E-2,0E0,0E0,0E0,0E0,0E0,0E0,0E0,0E0,0E0,0E0,0E0,0E0,0E0,0E0,0E0,0E0,0E0,0E0,0E0,0E0],"parents":[2147483647,0,0,1,1,2,2,3,3,4,4,5,5,6,6,7,7,8,8,9,9,10,10,11,11,12,12,13,13,14,14,15,15,16,16,18,18,21,21,22,22,23,23,24,24,29,29,30,30,32,32,35,35,37,37,38,38,39,39,40,40,43,43,45,45,47,47,48,48],"right_children":[2,4,6,8,10,12,14,16,18,20,22,24,26,28,30,32,34,-1,36,-1,-1,38,40,42,44,-1,-1,-1,-1,46,48,-1,50,-1,-1,52,-1,54,56,58,60,-1,-1,62,-1,64,-1,66,68,-1,-1,-1,-1,-1,-1,-1,-1,-1,-1,-1,-1,-1,-1,-1,-1,-1,-1,-1,-1],"split_conditions":[3.908878E-1,6.445462E-1,3.457454E-1,2.1428187E-1,1.1870937E-1,8.842018E-1,3.5714024E-1,1.1870937E-1,2.0079026E-1,8.571463E-1,6.9281805E-1,7.399957E-1,2.1428187E-1,6.5968186E-1,6.6060686E-1,7.8568995E-2,8.5711695E-2,-1.0673291E-2,6.2848556E-1,-9.397442E-3,-1.3737457E-2,3.4487048E-1,1.3061191E-1,3.380327E-1,2.1428187E-1,1.4737646E-2,8.938902E-3,-7.3956586E-3,9.800213E-3,4.0363577E-1,7.879819E-1,6.2521542E-3,1.0862903E-1,-7.875248E-3,-1.5891174E-2,2.5979048E-1,-5.158707E-3,2.4364543E-1,3.8790655E-1,9.071456E-1,7.3909396E-1,-8.382269E-3,-5.201815E-3,8.7240314E-1,1.5011136E-2,6.886405E-1,1.0391272E-2,7.6449955E-1,8.842018E-1,-1.0607921E-4,-1.897344E-3,-7.8047E-3,-9.888559E-3,-7.625956E-3,-1.4338337E-2,7.3451675E-3,1.2162417E-3,-2.1168462E-3,-2.7925076E-4,3.504791E-3,8.50341E-3,-9.08585E-3,-7.6557323E-4,5.978349E-3,9.334391E-3,8.394756E-3,3.0142863E-4,1.3519825E-2,7.5508216E-3],"split_indices":[0,1,1,1,0,0,1,0,0,1,1,0,1,0,1,1,1,0,1,0,0,0,0,1,1,0,0,0,0,1,0,0,0,0,0,0,0,0,0,1,1,0,0,0,0,0,0,0,0,0,0,0,0,0,0,0,0,0,0,0,0,0,0,0,0,0,0,0,0],"split_type":[0,0,0,0,0,0,0,0,0,0,0,0,0,0,0,0,0,0,0,0,0,0,0,0,0,0,0,0,0,0,0,0,0,0,0,0,0,0,0,0,0,0,0,0,0,0,0,0,0,0,0,0,0,0,0,0,0,0,0,0,0,0,0,0,0,0,0,0,0],"sum_hessian":[1.256E3,5E2,7.56E2,3.64E2,1.36E2,2.31E2,5.25E2,4.6E1,3.18E2,3.1E1,1.05E2,1.94E2,3.7E1,2.6E1,4.99E2,1E1,3.6E1,1.3E2,1.88E2,2.3E1,8E0,3.8E1,6.7E1,1.65E2,2.9E1,1E1,2.7E1,1E1,1.6E1,2.59E2,2.4E2,1E0,9E0,2.9E1,7E0,1.79E2,9E0,2.3E1,1.5E1,3E0,6.4E1,1.58E2,7E0,2.3E1,6E0,3.4E1,2.25E2,1.87E2,5.3E1,7E0,2E0,2.8E1,1.51E2,1.4E1,9E0,1.4E1,1E0,2E0,1E0,2E1,4.4E1,2E1,3E0,1.3E1,2.1E1,1.82E2,5E0,1.8E1,3.5E1],"tree_param":{"num_deleted":"0","num_feature":"3","num_nodes":"69","size_leaf_vector":"1"}},{"base_weights":[4.1232904E-4,-4.021034E-2,6.910229E-2,-7.056493E-2,-1.3596402E-3,8.846224E-2,6.1288863E-2,-9.361431E-3,-6.392634E-2,-6.961662E-3,4.384703E-3,7.5084805E-2,9.288075E-3,